{"learner":{"attributes":{"scikit_learn":"{\"_estimator_type\": \"classifier\"}"},"feature_names":["Pregnancies","Glucose","BloodPressure","SkinThickness","Insulin","BMI","DiabetesPedigreeFunction","Age"],"feature_types":["int","int","int","int","int","float","float","int"],"gradient_booster":{"model":{"gbtree_model_param":{"num_parallel_tree":"1","num_trees":"50"},"iteration_indptr":[0,1,2,3,4,5,6,7,8,9,10,11,12,13,14,15,16,17,18,19,20,21,22,23,24,25,26,27,28,29,30,31,32,33,34,35,36,37,38,39,40,41,42,43,44,45,46,47,48,49,50],"tree_info":[0,0,0,0,0,0,0,0,0,0,0,0,0,0,0,0,0,0,0,0,0,0,0,0,0,0,0,0,0,0,0,0,0,0,0,0,0,0,0,0,0,0,0,0,0,0,0,0,0,0],"trees":[{"base_weights":[-2.0086223E-2,-6.795388E-1,1.1190666E0,-1.1811624E0,-1.0281509E-2,-1.6387218E-1,1.5908966E0,-1.4552002E-1,-7.8303903E-1,-1.2515522E0,3.3188564E-1,-8.314535E-1,7.780588E-1,1.0768619E0,2.1555457E0,8.084976E-2,-9.490704E-1,-1.3394411E-1,-3.5405066E-2,-8.55017E-1,7.0596075E-1,-4.6078893E-3,-9.626113E-2,1.085636E-1,1.2801182E0,4.9520323E-1,1.4861016E0,2.2312334E-1,5.806319E-2,-9.959319E-2,1.1289982E-1,-1.2563559E0,-3.5914123E-1,-1.23988226E-1,-1.437459E-1,3.0266973E-1,1.5003929E0,7.986167E-2,-5.627137E-2,1.7488287E-1,1.1329062E-2,1.8373083E-1,5.5338405E-3,2.0780044E-2,1.6556952E0,-4.6078893E-3,-1.4022534E-1,3.277769E-2,-1.1529839E-1,1.0479732E-1,-9.959319E-2,8.155834E-2,-5.204717E-2,1.7122778E-1,1.1329062E-2,4.129714E-2,-9.959319E-2,1.801295E-1,3.7626892E-2],"categories":[],"categories_nodes":[],"categories_segments":[],"categories_sizes":[],"default_left":[0,0,0,0,0,0,0,0,0,0,0,0,0,0,0,0,0,0,0,0,0,0,0,0,0,0,0,0,0,0,0,0,0,0,0,0,0,0,0,0,0,0,0,0,0,0,0,0,0,0,0,0,0,0,0,0,0,0,0],"id":0,"left_children":[1,3,5,7,9,11,13,-1,15,17,19,21,23,25,27,29,31,-1,-1,33,35,-1,-1,37,39,41,43,-1,-1,-1,-1,45,47,-1,49,51,53,-1,-1,-1,-1,-1,55,-1,57,-1,-1,-1,-1,-1,-1,-1,-1,-1,-1,-1,-1,-1,-1],"loss_changes":[1.066543E2,3.016919E1,3.1774994E1,4.4658585E0,1.7202097E1,1.001949E1,8.753616E0,0E0,3.3916655E0,2.1600437E-1,1.4710804E1,9.039664E-1,2.1126761E0,4.4941635E0,7.529068E-1,6.3694115E0,3.0771923E0,0E0,0E0,2.029934E0,7.4617157E0,0E0,0E0,2.2853005E0,1.8447986E0,6.9389477E0,2.3436508E0,0E0,0E0,0E0,0E0,2.1245155E0,4.7766438E0,0E0,5.0687914E0,7.872339E0,2.1768208E0,0E0,0E0,0E0,0E0,0E0,3.981757E0,0E0,1.3344612E0,0E0,0E0,0E0,0E0,0E0,0E0,0E0,0E0,0E0,0E0,0E0,0E0,0E0,0E0],"parents":[2147483647,0,0,1,1,2,2,3,3,4,4,5,5,6,6,8,8,9,9,10,10,11,11,12,12,13,13,14,14,15,15,16,16,19,19,20,20,23,23,24,24,25,25,26,26,31,31,32,32,34,34,35,35,36,36,42,42,44,44],"right_children":[2,4,6,8,10,12,14,-1,16,18,20,22,24,26,28,30,32,-1,-1,34,36,-1,-1,38,40,42,44,-1,-1,-1,-1,46,48,-1,50,52,54,-1,-1,-1,-1,-1,56,-1,58,-1,-1,-1,-1,-1,-1,-1,-1,-1,-1,-1,-1,-1,-1],"split_conditions":[1.28E2,2.9E1,3E1,3.1E1,2.63E1,1.47E2,1.58E2,-1.4552002E-1,8E0,1.21E2,9.5E1,6E1,1.4E1,3.1E1,5.1E2,1.08E2,4.87E-1,-1.3394411E-1,-3.5405066E-2,3.1E1,5.14E-1,-4.6078893E-3,-9.626113E-2,2.6E1,1.46E2,6.1E1,2.03E-1,2.2312334E-1,5.806319E-2,-9.959319E-2,1.1289982E-1,3.21E1,7E1,-1.23988226E-1,1.4E1,2.8E1,4.1E1,7.986167E-2,-5.627137E-2,1.7488287E-1,1.1329062E-2,1.8373083E-1,2.55E2,2.0780044E-2,1.1E1,-4.6078893E-3,-1.4022534E-1,3.277769E-2,-1.1529839E-1,1.0479732E-1,-9.959319E-2,8.155834E-2,-5.204717E-2,1.7122778E-1,1.1329062E-2,4.129714E-2,-9.959319E-2,1.801295E-1,3.7626892E-2],"split_indices":[1,7,5,5,5,1,1,0,3,1,1,2,4,7,4,1,6,0,0,3,6,0,0,5,4,2,6,0,0,0,0,5,2,0,4,3,3,0,0,0,0,0,4,0,0,0,0,0,0,0,0,0,0,0,0,0,0,0,0],"split_type":[0,0,0,0,0,0,0,0,0,0,0,0,0,0,0,0,0,0,0,0,0,0,0,0,0,0,0,0,0,0,0,0,0,0,0,0,0,0,0,0,0,0,0,0,0,0,0,0,0,0,0,0,0,0,0,0,0,0,0],"sum_hessian":[1.3996301E2,8.890159E1,5.1061424E1,5.0377567E1,3.852402E1,1.3905121E1,3.7156303E1,2.8266146E1,2.2111422E1,7.750395E0,3.0773626E1,8.206301E0,5.6988196E0,2.0971657E1,1.6184649E1,3.6472447E0,1.8464176E1,6.610631E0,1.139764E0,7.0665364E0,2.370709E1,1.3677168E0,6.838584E0,2.9633863E0,2.7354336E0,9.574018E0,1.1397639E1,1.5044885E1,1.139764E0,1.8236223E0,1.8236223E0,1.1397639E1,7.0665364E0,4.1031504E0,2.9633863E0,1.6640554E1,7.0665364E0,1.3677168E0,1.5956695E0,1.5956695E0,1.139764E0,1.8236223E0,7.750395E0,1.5956695E0,9.8019705E0,1.3677168E0,1.00299225E1,4.1031504E0,2.9633863E0,1.139764E0,1.8236223E0,1.0257875E1,6.382678E0,5.9267726E0,1.139764E0,5.9267726E0,1.8236223E0,8.434254E0,1.3677168E0],"tree_param":{"num_deleted":"0","num_feature":"8","num_nodes":"59","size_leaf_vector":"1"}},{"base_weights":[-1.8579757E-2,-6.322664E-1,9.943459E-1,-1.1127245E0,-1.2960192E-2,-1.4264593E-1,1.3940815E0,-1.3803023E-1,-7.324652E-1,-1.1880269E0,2.9798922E-1,-8.374673E-1,6.52027E-1,1.0321727E0,1.9669122E0,7.432784E-2,-8.9171946E-1,-3.0024448E-2,-1.2797473E-1,-8.045806E-1,6.32131E-1,-1.1139249E-1,-4.8562798E-1,-1.8110303E-2,9.099035E-1,1.248977E0,-1.0400364E-1,2.0691715E-1,4.6453036E-2,-9.518488E-2,1.0341717E-1,-1.1883522E0,-3.3718774E-1,-1.17955856E-1,-1.2999943E-1,-5.335517E-1,8.420742E-1,6.297324E-2,-9.182199E-2,1.9976133E-1,1.4707264E-1,4.54856E-1,1.4904482E0,-9.081911E-2,1.399303E-1,-4.345342E-3,-1.3320689E-1,2.9900385E-2,-1.0983347E-1,9.762394E-2,-9.518488E-2,1.5489138E-2,-9.8821156E-2,1.0291822E-1,-1.0726059E-2,7.741196E-2,-4.6357132E-2,-2.2196943E-2,8.7705955E-2,6.7703575E-2,1.6061048E-1],"categories":[],"categories_nodes":[],"categories_segments":[],"categories_sizes":[],"default_left":[0,0,0,0,0,0,0,0,0,0,0,0,0,0,0,0,0,0,0,0,0,0,0,0,0,0,0,0,0,0,0,0,0,0,0,0,0,0,0,0,0,0,0,0,0,0,0,0,0,0,0,0,0,0,0,0,0,0,0,0,0],"id":1,"left_children":[1,3,5,7,9,11,13,-1,15,17,19,21,23,25,27,29,31,-1,-1,33,35,-1,37,-1,39,41,43,-1,-1,-1,-1,45,47,-1,49,51,53,-1,-1,55,-1,57,59,-1,-1,-1,-1,-1,-1,-1,-1,-1,-1,-1,-1,-1,-1,-1,-1,-1,-1],"loss_changes":[8.784026E1,2.6163342E1,2.4432587E1,4.0286713E0,1.4767351E1,8.70517E0,6.167595E0,0E0,2.9685555E0,3.0421734E-1,1.2294937E1,2.6846504E-1,1.7665327E0,6.617487E0,1.2212944E0,5.5613194E0,2.7150488E0,0E0,0E0,1.8400545E0,6.5947666E0,0E0,3.2003403E0,0E0,2.0397038E0,3.5778809E0,7.488967E0,0E0,0E0,0E0,0E0,1.9074364E0,4.201001E0,0E0,4.510731E0,1.5442501E0,3.959053E0,0E0,0E0,1.7847463E0,0E0,2.0847392E0,4.723549E-1,0E0,0E0,0E0,0E0,0E0,0E0,0E0,0E0,0E0,0E0,0E0,0E0,0E0,0E0,0E0,0E0,0E0,0E0],"parents":[2147483647,0,0,1,1,2,2,3,3,4,4,5,5,6,6,8,8,9,9,10,10,11,11,12,12,13,13,14,14,15,15,16,16,19,19,20,20,22,22,24,24,25,25,26,26,31,31,32,32,34,34,35,35,36,36,39,39,41,41,42,42],"right_children":[2,4,6,8,10,12,14,-1,16,18,20,22,24,26,28,30,32,-1,-1,34,36,-1,38,-1,40,42,44,-1,-1,-1,-1,46,48,-1,50,52,54,-1,-1,56,-1,58,60,-1,-1,-1,-1,-1,-1,-1,-1,-1,-1,-1,-1,-1,-1,-1,-1,-1,-1],"split_conditions":[1.28E2,2.9E1,3E1,3.1E1,2.63E1,1.46E2,1.66E2,-1.3803023E-1,8E0,2.18E1,9.5E1,3E0,3E1,2.55E2,1.441E0,1.08E2,4.87E-1,-3.0024448E-2,-1.2797473E-1,3.1E1,1.99E-1,-1.1139249E-1,4E0,-1.8110303E-2,1.4E1,2.63E-1,3.5E1,2.0691715E-1,4.6453036E-2,-9.518488E-2,1.0341717E-1,3.21E1,7E1,-1.17955856E-1,1.4E1,8E0,8.5E1,6.297324E-2,-9.182199E-2,2.31E-1,1.4707264E-1,4.1E1,2.5E1,-9.081911E-2,1.399303E-1,-4.345342E-3,-1.3320689E-1,2.9900385E-2,-1.0983347E-1,9.762394E-2,-9.518488E-2,1.5489138E-2,-9.8821156E-2,1.0291822E-1,-1.0726059E-2,7.741196E-2,-4.6357132E-2,-2.2196943E-2,8.7705955E-2,6.7703575E-2,1.6061048E-1],"split_indices":[1,7,5,5,5,1,1,0,3,5,1,0,7,4,6,1,6,0,0,3,6,0,0,0,4,6,7,0,0,0,0,5,2,0,4,3,2,0,0,6,0,7,7,0,0,0,0,0,0,0,0,0,0,0,0,0,0,0,0,0,0],"split_type":[0,0,0,0,0,0,0,0,0,0,0,0,0,0,0,0,0,0,0,0,0,0,0,0,0,0,0,0,0,0,0,0,0,0,0,0,0,0,0,0,0,0,0,0,0,0,0,0,0,0,0,0,0,0,0,0,0,0,0,0,0],"sum_hessian":[1.3929747E2,8.6977486E1,5.2319992E1,4.8530647E1,3.8446835E1,1.3776841E1,3.8543148E1,2.6942251E1,2.1588398E1,7.4547925E0,3.099204E1,7.3214703E0,6.4553714E0,2.5337223E1,1.3205925E1,3.646789E0,1.7941608E1,1.0982314E0,6.356561E0,6.8805017E0,2.411154E1,2.8870046E0,4.434466E0,1.5961976E0,4.859174E0,2.1193766E1,4.1434574E0,1.201113E1,1.1947949E0,1.7665191E0,1.8802699E0,1.0944266E1,6.9973426E0,3.9411597E0,2.9393423E0,3.4445739E0,2.0666965E1,1.1119034E0,3.3225622E0,2.7425773E0,2.1165962E0,5.614192E0,1.5579575E1,2.9573214E0,1.1861358E0,1.3658397E0,9.578426E0,4.1422668E0,2.8550758E0,1.1728232E0,1.7665191E0,1.6322923E0,1.8122817E0,1.7194021E1,3.4729433E0,1.3803562E0,1.3622211E0,2.3389425E0,3.2752492E0,2.792657E0,1.2786918E1],"tree_param":{"num_deleted":"0","num_feature":"8","num_nodes":"61","size_leaf_vector":"1"}},{"base_weights":[-1.905611E-2,-5.927361E-1,8.929263E-1,-1.0537828E0,-1.993782E-2,-1.2945205E-1,1.2417078E0,-1.3174403E-1,-6.8810874E-1,-1.1319284E0,2.6231217E-1,-7.907776E-1,6.02138E-1,6.432381E-1,1.4910619E0,3.0930677E-2,-8.035958E-1,-2.8619746E-2,-1.22160494E-1,-7.604119E-1,5.6011486E-1,-4.4835788E-1,-1.06571294E-1,-1.7056184E-2,8.3766043E-1,7.0688345E-2,1.1326269E0,1.5733433E0,1.14521235E-2,-1.1063468E0,-2.2443813E-1,-1.1266693E-1,-1.18444294E-1,2.151225E-1,1.2274047E0,-9.114362E-2,1.9175839E-2,1.1337291E0,-7.913486E-3,-4.1240308E-1,6.2993073E-1,4.5652646E-1,1.5243083E-1,1.1656623E0,1.9018121E-1,-5.6014517E-3,-1.2256088E-1,5.750986E-2,-6.899273E-2,9.1198884E-2,-9.118318E-2,6.583264E-2,-5.1568117E-2,6.0503393E-2,1.7983589E-1,-4.9096838E-2,6.1725643E-2,3.351415E-2,1.5675525E-1,4.5049438E-4,-8.733616E-2,8.4617525E-2,7.0827426E-3,-4.4565026E-2,9.800243E-2,1.6725188E-1,7.264789E-2],"categories":[],"categories_nodes":[],"categories_segments":[],"categories_sizes":[],"default_left":[0,0,0,0,0,0,0,0,0,0,0,0,0,0,0,0,0,0,0,0,0,0,0,0,0,0,0,0,0,0,0,0,0,0,0,0,0,0,0,0,0,0,0,0,0,0,0,0,0,0,0,0,0,0,0,0,0,0,0,0,0,0,0,0,0,0,0],"id":2,"left_children":[1,3,5,7,9,11,13,-1,15,17,19,21,23,25,27,-1,29,-1,-1,31,33,35,-1,-1,37,39,41,43,-1,45,47,-1,49,51,53,-1,55,57,-1,59,61,63,-1,65,-1,-1,-1,-1,-1,-1,-1,-1,-1,-1,-1,-1,-1,-1,-1,-1,-1,-1,-1,-1,-1,-1,-1],"loss_changes":[7.316722E1,2.2644855E1,1.9420113E1,3.6762543E0,1.2629797E1,7.561297E0,5.0647697E0,0E0,2.7835474E0,2.6795292E-1,1.0218272E1,2.869749E-1,1.5115056E0,3.739284E0,2.9612236E0,0E0,3.258771E0,0E0,0E0,1.6711125E0,5.600906E0,1.1745032E0,0E0,0E0,1.7000918E0,2.2450285E0,1.2326527E0,1.2771912E0,0E0,1.5448446E0,3.4191487E0,0E0,4.024478E0,6.171692E0,1.9217243E0,0E0,1.4132347E0,1.050919E0,0E0,8.777452E-1,3.996632E-1,2.3726172E0,0E0,1.9516716E0,0E0,0E0,0E0,0E0,0E0,0E0,0E0,0E0,0E0,0E0,0E0,0E0,0E0,0E0,0E0,0E0,0E0,0E0,0E0,0E0,0E0,0E0,0E0],"parents":[2147483647,0,0,1,1,2,2,3,3,4,4,5,5,6,6,8,8,9,9,10,10,11,11,12,12,13,13,14,14,16,16,19,19,20,20,21,21,24,24,25,25,26,26,27,27,29,29,30,30,32,32,33,33,34,34,36,36,37,37,39,39,40,40,41,41,43,43],"right_children":[2,4,6,8,10,12,14,-1,16,18,20,22,24,26,28,-1,30,-1,-1,32,34,36,-1,-1,38,40,42,44,-1,46,48,-1,50,52,54,-1,56,58,-1,60,62,64,-1,66,-1,-1,-1,-1,-1,-1,-1,-1,-1,-1,-1,-1,-1,-1,-1,-1,-1,-1,-1,-1,-1,-1,-1],"split_conditions":[1.28E2,2.9E1,3E1,3.1E1,2.63E1,1.46E2,3.05E-1,-1.3174403E-1,5.4E1,2.18E1,9.5E1,4.03E-1,3E1,3.8E1,4.74E2,3.0930677E-2,5.02E-1,-2.8619746E-2,-1.22160494E-1,3.1E1,5.14E-1,3E0,-1.06571294E-1,-1.7056184E-2,5.4E1,2.6E1,1.45E2,1.55E2,1.14521235E-2,8E0,6.8E1,-1.1266693E-1,1.4E1,2.8E1,7E0,-9.114362E-2,2.69E-1,4.1E1,-7.913486E-3,1.06E2,2.6E1,6E0,1.5243083E-1,7.4E1,1.9018121E-1,-5.6014517E-3,-1.2256088E-1,5.750986E-2,-6.899273E-2,9.1198884E-2,-9.118318E-2,6.583264E-2,-5.1568117E-2,6.0503393E-2,1.7983589E-1,-4.9096838E-2,6.1725643E-2,3.351415E-2,1.5675525E-1,4.5049438E-4,-8.733616E-2,8.4617525E-2,7.0827426E-3,-4.4565026E-2,9.800243E-2,1.6725188E-1,7.264789E-2],"split_indices":[1,7,5,5,5,1,6,0,2,5,1,6,7,7,4,0,6,0,0,3,6,0,0,0,7,3,1,1,0,3,2,0,4,3,0,0,6,7,0,4,7,0,0,2,0,0,0,0,0,0,0,0,0,0,0,0,0,0,0,0,0,0,0,0,0,0,0],"split_type":[0,0,0,0,0,0,0,0,0,0,0,0,0,0,0,0,0,0,0,0,0,0,0,0,0,0,0,0,0,0,0,0,0,0,0,0,0,0,0,0,0,0,0,0,0,0,0,0,0,0,0,0,0,0,0,0,0,0,0,0,0,0,0,0,0,0,0],"sum_hessian":[1.378377E2,8.4827354E1,5.3010357E1,4.653307E1,3.829428E1,1.3644188E1,3.936617E1,2.5525764E1,2.1007305E1,7.1428723E0,3.115141E1,7.1237373E0,6.5204506E0,1.2630819E1,2.6735348E1,2.005793E0,1.9001513E1,1.0866094E0,6.056263E0,6.674885E0,2.4476524E1,4.3441133E0,2.7796237E0,1.5876192E0,4.932832E0,6.348256E0,6.2825627E0,2.50925E1,1.6428471E0,1.1880689E1,7.1208234E0,3.7693558E0,2.9055293E0,1.7006472E1,7.470053E0,1.705455E0,2.6386585E0,3.5498316E0,1.3829999E0,3.5468996E0,2.8013568E0,3.0989208E0,3.183642E0,1.3225887E1,1.1866614E1,1.3613199E0,1.0519368E1,2.5335898E0,4.5872335E0,1.1989167E0,1.7066125E0,1.0648031E1,6.35844E0,4.559568E0,2.9104853E0,1.5206685E0,1.1179899E0,1.8735346E0,1.6762972E0,2.3823974E0,1.164502E0,1.6498091E0,1.1515476E0,1.1925063E0,1.9064145E0,4.836216E0,8.389671E0],"tree_param":{"num_deleted":"0","num_feature":"8","num_nodes":"67","size_leaf_vector":"1"}},{"base_weights":[-1.631823E-2,-5.5405617E-1,8.101785E-1,-9.9916327E-1,-1.9587724E-2,-1.4054316E-1,1.1140802E0,-1.2637757E-1,-6.4293945E-1,-1.0823144E0,2.3995492E-1,-7.5281215E-1,5.640275E-1,7.2260535E-1,1.4824846E0,2.8675074E-2,-7.547548E-1,-1.1769803E-1,-2.3890099E-2,-7.2133493E-1,5.1011294E-1,-1.0224893E-1,-4.2239124E-1,6.3187756E-2,9.151887E-1,8.777015E-1,-9.234208E-2,1.5728566E-1,1.45957E-3,-1.0512596E0,-2.0587102E-1,-1.0796964E-1,-1.08704865E-1,-5.2075934E-1,6.9125384E-1,5.789846E-2,-8.3857834E-1,-4.7911193E-2,5.279648E-2,1.445071E-1,-7.4639427E-3,4.276299E-1,1.4553093E0,-5.283629E-3,-1.1698943E-1,4.312781E-2,-7.285757E-2,8.5412204E-2,-8.752366E-2,1.0269792E-2,-9.372108E-2,8.5153766E-2,-1.3162387E-2,-2.4292285E-2,-9.622442E-2,-6.7672157E-3,9.15021E-2,5.1608544E-2,1.7415197E-1],"categories":[],"categories_nodes":[],"categories_segments":[],"categories_sizes":[],"default_left":[0,0,0,0,0,0,0,0,0,0,0,0,0,0,0,0,0,0,0,0,0,0,0,0,0,0,0,0,0,0,0,0,0,0,0,0,0,0,0,0,0,0,0,0,0,0,0,0,0,0,0,0,0,0,0,0,0,0,0],"id":3,"left_children":[1,3,5,7,9,11,13,-1,15,17,19,21,23,25,27,-1,29,-1,-1,31,33,-1,35,37,39,41,-1,-1,-1,43,45,-1,47,49,51,-1,53,-1,-1,-1,-1,55,57,-1,-1,-1,-1,-1,-1,-1,-1,-1,-1,-1,-1,-1,-1,-1,-1],"loss_changes":[6.1205402E1,1.9824137E1,1.5842503E1,3.475544E0,1.0995298E1,6.4806356E0,4.8781548E0,0E0,2.4436235E0,3.4329128E-1,8.704529E0,2.7558136E-1,1.1906998E0,6.414337E0,2.670124E0,0E0,2.940876E0,0E0,0E0,1.5196707E0,5.14859E0,0E0,2.6826088E0,1.2611643E0,2.257685E0,4.725977E0,0E0,0E0,0E0,1.401289E0,2.9944487E0,0E0,3.5992851E0,1.2394357E0,3.0455608E0,0E0,7.065749E-2,0E0,0E0,0E0,0E0,3.1951978E0,1.4114056E0,0E0,0E0,0E0,0E0,0E0,0E0,0E0,0E0,0E0,0E0,0E0,0E0,0E0,0E0,0E0,0E0],"parents":[2147483647,0,0,1,1,2,2,3,3,4,4,5,5,6,6,8,8,9,9,10,10,11,11,12,12,13,13,14,14,16,16,19,19,20,20,22,22,23,23,24,24,25,25,29,29,30,30,32,32,33,33,34,34,36,36,41,41,42,42],"right_children":[2,4,6,8,10,12,14,-1,16,18,20,22,24,26,28,-1,30,-1,-1,32,34,-1,36,38,40,42,-1,-1,-1,44,46,-1,48,50,52,-1,54,-1,-1,-1,-1,56,58,-1,-1,-1,-1,-1,-1,-1,-1,-1,-1,-1,-1,-1,-1,-1,-1],"split_conditions":[1.28E2,2.9E1,2.98E1,3.1E1,2.63E1,1.46E2,1.55E2,-1.2637757E-1,5.4E1,1.21E2,9.5E1,3E0,4.1E1,1.52E2,5.43E2,2.8675074E-2,5.02E-1,-1.1769803E-1,-2.3890099E-2,3.1E1,1.99E-1,-1.0224893E-1,4E0,1.55E2,5.4E1,3.2E1,-9.234208E-2,1.5728566E-1,1.45957E-3,8E0,7E1,-1.0796964E-1,1.4E1,8E0,8.5E1,5.789846E-2,2.6E1,-4.7911193E-2,5.279648E-2,1.445071E-1,-7.4639427E-3,4.35E-1,1.4E1,-5.283629E-3,-1.1698943E-1,4.312781E-2,-7.285757E-2,8.5412204E-2,-8.752366E-2,1.0269792E-2,-9.372108E-2,8.5153766E-2,-1.3162387E-2,-2.4292285E-2,-9.622442E-2,-6.7672157E-3,9.15021E-2,5.1608544E-2,1.7415197E-1],"split_indices":[1,7,5,5,5,1,1,0,2,1,1,0,7,1,4,0,6,0,0,3,6,0,0,1,7,3,0,0,0,3,2,0,4,3,2,0,5,0,0,0,0,6,4,0,0,0,0,0,0,0,0,0,0,0,0,0,0,0,0],"split_type":[0,0,0,0,0,0,0,0,0,0,0,0,0,0,0,0,0,0,0,0,0,0,0,0,0,0,0,0,0,0,0,0,0,0,0,0,0,0,0,0,0,0,0,0,0,0,0,0,0,0,0,0,0,0,0,0,0,0,0],"sum_hessian":[1.3570395E2,8.241347E1,5.329048E1,4.4491413E1,3.792205E1,1.3038515E1,4.0251965E1,2.4066494E1,2.0424921E1,6.8213162E0,3.1100733E1,6.93958E0,6.0989356E0,2.0950708E1,1.9301256E1,2.024841E0,1.840008E1,5.7773614E0,1.0439548E0,6.456575E0,2.4644157E1,2.6677532E0,4.2718267E0,3.0000653E0,3.09887E0,1.9573206E1,1.3775024E0,1.811451E1,1.1867464E0,1.1352327E1,7.0477524E0,3.5926428E0,2.8639321E0,3.4029713E0,2.1241186E1,1.1393368E0,3.13249E0,1.3703291E0,1.6297362E0,1.7188185E0,1.3800516E0,1.1979294E1,7.593912E0,1.3591492E0,9.993178E0,3.2549963E0,3.792756E0,1.218778E0,1.645154E0,1.6644977E0,1.7384737E0,1.7749107E1,3.4920797E0,1.0481693E0,2.0843205E0,6.36854E0,5.6107545E0,2.4283247E0,5.1655874E0],"tree_param":{"num_deleted":"0","num_feature":"8","num_nodes":"59","size_leaf_vector":"1"}},{"base_weights":[-1.764701E-2,-5.2200776E-1,7.360762E-1,-8.966059E-1,4.437256E-2,-1.1277493E-1,1.0156958E0,-9.423679E-1,4.301073E-2,-1.0265908E0,3.1684223E-1,-7.1710616E-1,5.1890165E-1,7.4655664E-1,1.4463186E0,-1.0504153E0,-2.9078525E-1,-2.1104274E-2,-1.1303397E-1,-6.268615E-1,5.9274393E-1,-3.9444008E-1,-9.854695E-2,-1.6203E-2,7.2459686E-1,-9.767036E-2,9.488916E-1,1.5334806E-1,2.7585104E-2,-1.1829295E0,-6.358213E-1,-8.4666586E-1,3.752011E-1,-1.0238478E-1,4.6772566E-2,7.923113E-1,-3.4562242E-1,-7.107168E-1,1.4863779E-2,1.23476565E-1,1.2080075E-1,3.7269062E-1,-9.145147E-2,4.9053052E-1,1.1484541E0,-1.2406297E-1,-1.1968485E-2,2.6063095E-3,-1.1547276E-1,-2.0944638E-2,-9.802622E-2,-4.3174762E-2,8.6242594E-2,8.017265E-2,-7.453655E-2,1.0931297E-1,-1.0194735E-2,-1.0656303E-1,5.9387233E-2,-2.0479701E-2,-8.3566815E-2,6.458186E-2,-4.6821404E-2,7.290995E-2,-8.38672E-3,7.343038E-2,-1.6290015E-2,1.2802587E-1,6.324791E-2],"categories":[],"categories_nodes":[],"categories_segments":[],"categories_sizes":[],"default_left":[0,0,0,0,0,0,0,0,0,0,0,0,0,0,0,0,0,0,0,0,0,0,0,0,0,0,0,0,0,0,0,0,0,0,0,0,0,0,0,0,0,0,0,0,0,0,0,0,0,0,0,0,0,0,0,0,0,0,0,0,0,0,0,0,0,0,0,0,0],"id":4,"left_children":[1,3,5,7,9,11,13,15,-1,17,19,21,23,25,27,29,31,-1,-1,33,35,37,-1,-1,39,41,43,-1,-1,45,47,49,51,-1,53,55,57,59,-1,61,-1,63,-1,65,67,-1,-1,-1,-1,-1,-1,-1,-1,-1,-1,-1,-1,-1,-1,-1,-1,-1,-1,-1,-1,-1,-1,-1,-1],"loss_changes":[5.140677E1,1.7224144E1,1.2984463E1,3.3680344E0,1.00122E1,5.844594E0,3.6588898E0,3.0375862E0,0E0,3.5108185E-1,7.460895E0,2.8204703E-1,1.180409E0,4.7436438E0,1.0724773E0,1.4645729E0,3.3300261E0,0E0,0E0,1.8250713E0,4.3155127E0,9.9616396E-1,0E0,0E0,1.5976837E0,2.7116916E0,1.4542522E0,0E0,0E0,1.656002E0,4.129172E0,1.9838738E-1,2.1002192E0,0E0,2.6431293E0,4.980795E0,3.664211E0,4.6915293E-2,0E0,1.4747678E0,0E0,8.1394863E-1,0E0,1.4633765E0,1.8461609E-1,0E0,0E0,0E0,0E0,0E0,0E0,0E0,0E0,0E0,0E0,0E0,0E0,0E0,0E0,0E0,0E0,0E0,0E0,0E0,0E0,0E0,0E0,0E0,0E0],"parents":[2147483647,0,0,1,1,2,2,3,3,4,4,5,5,6,6,7,7,9,9,10,10,11,11,12,12,13,13,14,14,15,15,16,16,19,19,20,20,21,21,24,24,25,25,26,26,29,29,30,30,31,31,32,32,34,34,35,35,36,36,37,37,39,39,41,41,43,43,44,44],"right_children":[2,4,6,8,10,12,14,16,-1,18,20,22,24,26,28,30,32,-1,-1,34,36,38,-1,-1,40,42,44,-1,-1,46,48,50,52,-1,54,56,58,60,-1,62,-1,64,-1,66,68,-1,-1,-1,-1,-1,-1,-1,-1,-1,-1,-1,-1,-1,-1,-1,-1,-1,-1,-1,-1,-1,-1,-1,-1],"split_conditions":[1.28E2,3.1E1,3E1,4.53E1,2.7E1,1.46E2,1.66E2,6.74E-1,4.301073E-2,2.21E1,9.5E1,4.03E-1,3E1,2.5E1,1.441E0,1.12E2,3.27E1,-2.1104274E-2,-1.1303397E-1,3.1E1,8.5E1,2.69E-1,-9.854695E-2,-1.6203E-2,1.4E1,2.55E2,3.05E-1,1.5334806E-1,2.7585104E-2,4.1E1,1.4E1,2.62E1,6.6E1,-1.0238478E-1,1.4E1,3.3E1,8E0,2.9E1,1.4863779E-2,2.6E1,1.2080075E-1,7E1,-9.145147E-2,1.48E2,1.49E2,-1.2406297E-1,-1.1968485E-2,2.6063095E-3,-1.1547276E-1,-2.0944638E-2,-9.802622E-2,-4.3174762E-2,8.6242594E-2,8.017265E-2,-7.453655E-2,1.0931297E-1,-1.0194735E-2,-1.0656303E-1,5.9387233E-2,-2.0479701E-2,-8.3566815E-2,6.458186E-2,-4.6821404E-2,7.290995E-2,-8.38672E-3,7.343038E-2,-1.6290015E-2,1.2802587E-1,6.324791E-2],"split_indices":[1,7,5,5,5,1,1,6,0,5,1,6,7,7,6,1,5,0,0,3,2,6,0,0,4,4,6,0,0,3,4,5,4,0,4,3,3,7,0,5,0,2,0,4,1,0,0,0,0,0,0,0,0,0,0,0,0,0,0,0,0,0,0,0,0,0,0,0,0],"split_type":[0,0,0,0,0,0,0,0,0,0,0,0,0,0,0,0,0,0,0,0,0,0,0,0,0,0,0,0,0,0,0,0,0,0,0,0,0,0,0,0,0,0,0,0,0,0,0,0,0,0,0,0,0,0,0,0,0,0,0,0,0,0,0,0,0,0,0,0,0],"sum_hessian":[1.332174E2,7.999526E1,5.3222137E1,4.779867E1,3.2196594E1,1.3335568E1,3.988657E1,4.6484974E1,1.313698E0,5.968644E0,2.622795E1,6.7461843E0,6.589384E0,2.6227842E1,1.3658726E1,3.9348064E1,7.1369095E0,1.0160286E0,4.9526157E0,5.6455765E0,2.0582373E1,4.1846175E0,2.5615668E0,1.5779697E0,5.0114145E0,5.1707144E0,2.1057129E1,1.2423438E1,1.2352877E0,2.8413269E1,1.0934793E1,3.7421463E0,3.3947635E0,3.2250822E0,2.4204946E0,1.710105E1,3.481323E0,2.4494364E0,1.735181E0,2.7933347E0,2.2180796E0,3.6263232E0,1.5443912E0,7.435981E0,1.3621147E1,2.6792463E1,1.6208055E0,5.2227516E0,5.712042E0,1.0936202E0,2.648526E0,1.3209126E0,2.0738509E0,1.2331376E0,1.187357E0,1.2630056E1,4.470993E0,1.8948743E0,1.5864488E0,1.0078268E0,1.4416095E0,1.4350224E0,1.3583122E0,1.7012805E0,1.9250427E0,5.325461E0,2.1105201E0,9.669782E0,3.9513662E0],"tree_param":{"num_deleted":"0","num_feature":"8","num_nodes":"69","size_leaf_vector":"1"}},{"base_weights":[-1.8450063E-2,-4.919334E-1,6.7234594E-1,-9.056495E-1,-2.8518848E-2,-1.0801452E-1,9.2721444E-1,-1.18185334E-1,-5.5469847E-1,-9.973269E-1,1.9049148E-1,-6.8565816E-1,4.8261958E-1,4.5365152E-1,1.1270821E0,-5.4626003E-2,-7.846387E-1,-2.0881614E-2,-1.09315686E-1,-6.585019E-1,4.1316408E-1,-9.638205E-2,-3.597188E-1,-1.5260676E-2,6.73541E-1,-5.177893E-2,8.988031E-1,1.1915793E0,5.6657675E-3,-8.688492E-1,9.88653E-1,-9.677943E-1,3.5975687E-2,-9.994443E-2,-1.0184142E-1,1.1412468E-1,9.9527615E-1,5.503424E-2,-7.666279E-1,1.1564896E-1,1.1192494E-1,-4.7935578E-1,4.6793965E-1,3.4656176E-1,1.231776E-1,8.606637E-1,1.4759172E-1,-9.878469E-2,-2.2005318E-2,3.238947E-2,1.2417807E-1,2.106172E-2,-1.11150794E-1,6.765129E-2,-7.4212685E-2,7.540443E-2,-8.1825465E-2,3.49199E-2,-9.337978E-2,6.689561E-3,1.261935E-1,-2.0044414E-2,-8.929827E-2,6.0714122E-2,-4.4705644E-2,2.8017287E-3,-7.868268E-2,6.871614E-2,-1.6647781E-3,-3.369325E-2,9.5042914E-2,1.3187365E-1,4.8541866E-2],"categories":[],"categories_nodes":[],"categories_segments":[],"categories_sizes":[],"default_left":[0,0,0,0,0,0,0,0,0,0,0,0,0,0,0,0,0,0,0,0,0,0,0,0,0,0,0,0,0,0,0,0,0,0,0,0,0,0,0,0,0,0,0,0,0,0,0,0,0,0,0,0,0,0,0,0,0,0,0,0,0,0,0,0,0,0,0,0,0,0,0,0,0],"id":5,"left_children":[1,3,5,7,9,11,13,-1,15,17,19,21,23,25,27,29,31,-1,-1,33,35,-1,37,-1,39,41,43,45,-1,47,49,51,53,-1,55,57,59,-1,61,63,-1,65,67,69,-1,71,-1,-1,-1,-1,-1,-1,-1,-1,-1,-1,-1,-1,-1,-1,-1,-1,-1,-1,-1,-1,-1,-1,-1,-1,-1,-1,-1],"loss_changes":[4.3355965E1,1.5048393E1,1.0823839E1,3.3679276E0,8.277763E0,5.1653714E0,3.3454819E0,0E0,2.2758179E0,3.1491804E-1,6.308207E0,3.4024596E-1,1.0236665E0,3.14407E0,1.8642578E0,7.1673865E0,2.099702E0,0E0,0E0,1.230504E0,4.3965726E0,0E0,2.3046784E0,0E0,1.3682406E0,1.8670975E0,9.291625E-1,1.2081642E0,0E0,1.4574122E-1,2.2426486E-1,2.1422844E0,2.2320046E0,0E0,2.9346826E0,4.8207774E0,2.0603075E0,0E0,1.02249384E-1,1.3196472E0,0E0,7.318288E-1,4.196692E-1,2.0394773E0,0E0,1.8646574E0,0E0,0E0,0E0,0E0,0E0,0E0,0E0,0E0,0E0,0E0,0E0,0E0,0E0,0E0,0E0,0E0,0E0,0E0,0E0,0E0,0E0,0E0,0E0,0E0,0E0,0E0,0E0],"parents":[2147483647,0,0,1,1,2,2,3,3,4,4,5,5,6,6,8,8,9,9,10,10,11,11,12,12,13,13,14,14,15,15,16,16,19,19,20,20,22,22,24,24,25,25,26,26,27,27,29,29,30,30,31,31,32,32,34,34,35,35,36,36,38,38,39,39,41,41,42,42,43,43,45,45],"right_children":[2,4,6,8,10,12,14,-1,16,18,20,22,24,26,28,30,32,-1,-1,34,36,-1,38,-1,40,42,44,46,-1,48,50,52,54,-1,56,58,60,-1,62,64,-1,66,68,70,-1,72,-1,-1,-1,-1,-1,-1,-1,-1,-1,-1,-1,-1,-1,-1,-1,-1,-1,-1,-1,-1,-1,-1,-1,-1,-1,-1,-1],"split_conditions":[1.28E2,2.9E1,3E1,3.1E1,2.63E1,1.46E2,3.05E-1,-1.18185334E-1,1.4E1,2.18E1,9.5E1,3E0,3E1,3.8E1,4.74E2,1.12E2,6.54E-1,-2.0881614E-2,-1.09315686E-1,3.1E1,5.14E-1,-9.638205E-2,4E0,-1.5260676E-2,1.4E1,2.6E1,1.45E2,1.55E2,5.6657675E-3,3.76E1,7.2E1,5.4E1,1.1E2,-9.994443E-2,1.4E1,4.15E-1,7E1,5.503424E-2,2.6E1,2.31E-1,1.1192494E-1,8E0,2.6E1,1.4E1,1.231776E-1,7.4E1,1.4759172E-1,-9.878469E-2,-2.2005318E-2,3.238947E-2,1.2417807E-1,2.106172E-2,-1.11150794E-1,6.765129E-2,-7.4212685E-2,7.540443E-2,-8.1825465E-2,3.49199E-2,-9.337978E-2,6.689561E-3,1.261935E-1,-2.0044414E-2,-8.929827E-2,6.0714122E-2,-4.4705644E-2,2.8017287E-3,-7.868268E-2,6.871614E-2,-1.6647781E-3,-3.369325E-2,9.5042914E-2,1.3187365E-1,4.8541866E-2],"split_indices":[1,7,5,5,5,1,6,0,4,5,1,0,7,7,4,1,6,0,0,3,6,0,0,0,4,3,1,1,0,5,2,2,1,0,4,6,2,0,5,6,0,3,7,4,0,2,0,0,0,0,0,0,0,0,0,0,0,0,0,0,0,0,0,0,0,0,0,0,0,0,0,0,0],"split_type":[0,0,0,0,0,0,0,0,0,0,0,0,0,0,0,0,0,0,0,0,0,0,0,0,0,0,0,0,0,0,0,0,0,0,0,0,0,0,0,0,0,0,0,0,0,0,0,0,0,0,0,0,0,0,0,0,0,0,0,0,0,0,0,0,0,0,0,0,0,0,0,0,0],"sum_hessian":[1.3054324E2,7.7625374E1,5.2917873E1,4.0507637E1,3.7117733E1,1.3169986E1,3.9747887E1,2.1342888E1,1.916475E1,6.1885304E0,3.0929203E1,6.5768766E0,6.593109E0,1.276722E1,2.6980667E1,6.4263434E0,1.2738405E1,1.0150983E0,5.173432E0,6.019839E0,2.4909363E1,2.4925964E0,4.0842805E0,1.5700347E0,5.0230746E0,6.392632E0,6.374588E0,2.5340612E1,1.6400551E0,3.703306E0,2.7230375E0,1.026743E1,2.4709752E0,3.2399883E0,2.7798505E0,1.7245932E1,7.6634316E0,1.1530235E0,2.931257E0,2.7901378E0,2.2329369E0,3.5498242E0,2.8428075E0,3.1654482E0,3.2091398E0,1.35721245E1,1.1768488E1,2.6877522E0,1.015554E0,1.3795812E0,1.3434563E0,1.0654553E0,9.201975E0,1.4269034E0,1.0440718E0,1.2426968E0,1.5371537E0,1.4630686E1,2.615246E0,1.9891186E0,5.674313E0,1.0066983E0,1.9245586E0,1.4471573E0,1.3429806E0,1.6824347E0,1.8673896E0,1.6695077E0,1.1732998E0,1.6921785E0,1.4732696E0,4.979349E0,8.592775E0],"tree_param":{"num_deleted":"0","num_feature":"8","num_nodes":"73","size_leaf_vector":"1"}},{"base_weights":[-1.7138885E-2,-4.6364075E-1,6.203054E-1,-8.641676E-1,-3.1210618E-2,2.3419826E-1,1.0901307E0,-1.1448393E-1,-5.1967937E-1,-9.5974755E-1,1.706614E-1,-4.9806213E-1,5.4795253E-1,1.15159E0,-7.1206884E-3,-4.6130434E-2,-7.434486E-1,-1.0662128E-1,-1.956653E-2,-6.298826E-1,3.7329453E-1,-1.7272879E-1,-8.701455E-2,6.884873E-1,-9.1332406E-2,1.2194552E0,-3.7771494E-3,-8.3341056E-1,9.172376E-1,-2.7279985E-1,-1.11516036E-1,-9.6428975E-2,-9.5484614E-2,-5.3238696E-1,5.3286016E-1,-8.395802E-2,1.5584517E-1,3.0661055E-1,1.1747205E0,7.0597017E-1,1.4208649E-1,-9.506641E-2,-2.0998431E-2,3.0367462E-2,1.14722505E-1,-8.348129E-2,4.092358E-2,7.104457E-2,-7.886835E-2,5.2834623E-3,-9.168838E-2,1.0662567E-1,3.2598674E-2,4.8623223E-2,-4.2218685E-2,7.755131E-2,-7.722368E-3,3.646091E-2,1.437542E-1,1.0169502E-1,-5.885234E-2],"categories":[],"categories_nodes":[],"categories_segments":[],"categories_sizes":[],"default_left":[0,0,0,0,0,0,0,0,0,0,0,0,0,0,0,0,0,0,0,0,0,0,0,0,0,0,0,0,0,0,0,0,0,0,0,0,0,0,0,0,0,0,0,0,0,0,0,0,0,0,0,0,0,0,0,0,0,0,0,0,0],"id":6,"left_children":[1,3,5,7,9,11,13,-1,15,17,19,21,23,25,-1,27,29,-1,-1,31,33,35,-1,37,-1,39,-1,41,43,45,-1,-1,47,49,51,-1,53,55,57,59,-1,-1,-1,-1,-1,-1,-1,-1,-1,-1,-1,-1,-1,-1,-1,-1,-1,-1,-1,-1,-1],"loss_changes":[3.6869625E1,1.3163492E1,9.4265E0,3.224205E0,7.22257E0,7.296291E0,1.7808876E0,0E0,2.03893E0,3.5073042E-1,5.390659E0,1.0230842E0,5.121351E0,1.8754196E0,0E0,6.334862E0,2.0086513E0,0E0,0E0,1.1216545E0,4.039646E0,1.5373551E0,0E0,3.4513426E0,0E0,1.217432E0,0E0,1.3411641E-1,1.848743E-1,3.0852776E0,0E0,0E0,2.6408477E0,1.0370089E0,2.145856E0,0E0,1.1876072E0,2.3727536E0,1.3232393E0,3.8336992E0,0E0,0E0,0E0,0E0,0E0,0E0,0E0,0E0,0E0,0E0,0E0,0E0,0E0,0E0,0E0,0E0,0E0,0E0,0E0,0E0,0E0],"parents":[2147483647,0,0,1,1,2,2,3,3,4,4,5,5,6,6,8,8,9,9,10,10,11,11,12,12,13,13,15,15,16,16,19,19,20,20,21,21,23,23,25,25,27,27,28,28,29,29,32,32,33,33,34,34,36,36,37,37,38,38,39,39],"right_children":[2,4,6,8,10,12,14,-1,16,18,20,22,24,26,-1,28,30,-1,-1,32,34,36,-1,38,-1,40,-1,42,44,46,-1,-1,48,50,52,-1,54,56,58,60,-1,-1,-1,-1,-1,-1,-1,-1,-1,-1,-1,-1,-1,-1,-1,-1,-1,-1,-1,-1,-1],"split_conditions":[1.28E2,2.9E1,1.55E2,3.1E1,2.63E1,3E1,6.1E1,-1.1448393E-1,1.4E1,8E1,9.5E1,4.03E-1,1.52E2,5.43E2,-7.1206884E-3,1.12E2,6.8E1,-1.0662128E-1,-1.956653E-2,3.1E1,1.99E-1,2.38E1,-8.701455E-2,3.2E1,-9.1332406E-2,3E-1,-3.7771494E-3,3.76E1,7.2E1,2.5E1,-1.11516036E-1,-9.6428975E-2,1.4E1,8E0,6.8E1,-8.395802E-2,8E1,7.4E1,1.4E1,2.69E-1,1.4208649E-1,-9.506641E-2,-2.0998431E-2,3.0367462E-2,1.14722505E-1,-8.348129E-2,4.092358E-2,7.104457E-2,-7.886835E-2,5.2834623E-3,-9.168838E-2,1.0662567E-1,3.2598674E-2,4.8623223E-2,-4.2218685E-2,7.755131E-2,-7.722368E-3,3.646091E-2,1.437542E-1,1.0169502E-1,-5.885234E-2],"split_indices":[1,7,1,5,5,5,7,0,4,2,1,6,1,4,0,1,2,0,0,3,6,5,0,3,0,6,0,5,2,7,0,0,4,3,2,0,2,2,4,6,0,0,0,0,0,0,0,0,0,0,0,0,0,0,0,0,0,0,0,0,0],"split_type":[0,0,0,0,0,0,0,0,0,0,0,0,0,0,0,0,0,0,0,0,0,0,0,0,0,0,0,0,0,0,0,0,0,0,0,0,0,0,0,0,0,0,0,0,0,0,0,0,0,0,0,0,0,0,0,0,0,0,0,0,0],"sum_hessian":[1.2752932E2,7.515746E1,5.2371857E1,3.8499725E1,3.6657738E1,2.9569674E1,2.2802183E1,1.9934656E1,1.8565067E1,5.8760114E0,3.0781725E1,8.693285E0,2.0876389E1,2.1664085E1,1.1380966E0,6.344579E0,1.2220489E1,4.810336E0,1.0656754E0,5.7917466E0,2.4989979E1,5.4191976E0,3.2740874E0,1.9527248E1,1.3491409E0,2.047072E1,1.1933657E0,3.5656064E0,2.778973E0,6.157708E0,6.0627804E0,3.0676684E0,2.7240782E0,3.3933158E0,2.1596663E1,1.2754356E0,4.143762E0,1.185062E1,7.6766286E0,7.0365324E0,1.3434188E1,2.5593445E0,1.0062618E0,1.3903034E0,1.3886697E0,3.2530875E0,2.904621E0,1.248112E0,1.4759663E0,1.6874808E0,1.7058351E0,4.874428E0,1.6722235E1,2.737753E0,1.4060091E0,4.874886E0,6.9757338E0,2.4652174E0,5.211411E0,5.84643E0,1.1901023E0],"tree_param":{"num_deleted":"0","num_feature":"8","num_nodes":"61","size_leaf_vector":"1"}},{"base_weights":[-1.8784799E-2,-4.3827027E-1,5.683851E-1,-7.7799803E-1,2.8991595E-2,2.1199088E-1,1.0058548E0,-1.029871E0,-4.8062223E-1,-9.150296E-1,2.4381196E-1,-4.7302493E-1,5.026148E-1,1.0636656E0,-6.745053E-3,-1.095192E-1,6.933197E-3,-7.508966E-1,-2.1360427E-2,-1.0276437E-1,-1.9203525E-2,-5.4457814E-1,4.5093367E-1,-2.0237796E-1,-9.409086E-2,6.3373643E-1,-8.747761E-2,1.127546E0,-3.5728998E-3,6.0714364E-2,-9.789862E-1,-8.534338E-2,2.526207E-1,-9.181415E-2,4.2943865E-2,6.324193E-1,-3.8320526E-1,3.9593613E-1,-5.6361365E-1,2.8120616E-1,1.0863204E0,6.4263505E-1,1.3235484E-1,-2.0501096E-2,-1.07385375E-1,9.94181E-2,-3.436649E-2,6.7040645E-2,-6.648621E-2,9.043648E-2,-1.6758658E-2,-1.0492372E-1,4.861861E-2,6.9305316E-2,-4.782461E-3,-7.9361156E-2,1.5806451E-2,-2.7382371E-3,8.25747E-2,3.3827193E-2,1.3318396E-1,9.325387E-2,-5.582228E-2],"categories":[],"categories_nodes":[],"categories_segments":[],"categories_sizes":[],"default_left":[0,0,0,0,0,0,0,0,0,0,0,0,0,0,0,0,0,0,0,0,0,0,0,0,0,0,0,0,0,0,0,0,0,0,0,0,0,0,0,0,0,0,0,0,0,0,0,0,0,0,0,0,0,0,0,0,0,0,0,0,0,0,0],"id":7,"left_children":[1,3,5,7,9,11,13,15,17,19,21,23,25,27,-1,-1,-1,29,31,-1,-1,33,35,37,-1,39,-1,41,-1,-1,43,-1,45,-1,47,49,51,53,55,57,59,61,-1,-1,-1,-1,-1,-1,-1,-1,-1,-1,-1,-1,-1,-1,-1,-1,-1,-1,-1,-1,-1],"loss_changes":[3.1171385E1,1.1736439E1,8.011179E0,2.7080002E0,6.718449E0,6.2770805E0,1.5245857E0,1.675497E0,2.6508393E0,3.0320692E-1,4.635098E0,1.0191162E0,4.4887404E0,1.604826E0,0E0,0E0,0E0,4.774888E0,2.264832E0,0E0,0E0,1.3663367E0,3.5479088E0,1.8063906E0,0E0,2.9606028E0,0E0,1.1534214E0,0E0,0E0,6.5640926E-1,0E0,3.6730225E0,0E0,1.9136595E0,4.1352663E0,3.1300414E0,4.7419047E-1,9.520807E-1,2.1830168E0,1.1315413E0,3.3101895E0,0E0,0E0,0E0,0E0,0E0,0E0,0E0,0E0,0E0,0E0,0E0,0E0,0E0,0E0,0E0,0E0,0E0,0E0,0E0,0E0,0E0],"parents":[2147483647,0,0,1,1,2,2,3,3,4,4,5,5,6,6,7,7,8,8,9,9,10,10,11,11,12,12,13,13,17,17,18,18,21,21,22,22,23,23,25,25,27,27,30,30,32,32,34,34,35,35,36,36,37,37,38,38,39,39,40,40,41,41],"right_children":[2,4,6,8,10,12,14,16,18,20,22,24,26,28,-1,-1,-1,30,32,-1,-1,34,36,38,-1,40,-1,42,-1,-1,44,-1,46,-1,48,50,52,54,56,58,60,62,-1,-1,-1,-1,-1,-1,-1,-1,-1,-1,-1,-1,-1,-1,-1,-1,-1,-1,-1,-1,-1],"split_conditions":[1.28E2,3.1E1,1.55E2,3.1E1,2.7E1,3E1,6.1E1,6E0,5.02E-1,4.9E1,9.5E1,1.29E2,1.52E2,5.43E2,-6.745053E-3,-1.095192E-1,6.933197E-3,5.4E1,8.8E1,-1.0276437E-1,-1.9203525E-2,3.1E1,8.5E1,7.4E1,-9.409086E-2,3.2E1,-8.747761E-2,3E-1,-3.5728998E-3,6.0714364E-2,8E0,-8.534338E-2,7E1,-9.181415E-2,1.4E1,3.3E1,8E0,2.78E-1,6E0,4.2E1,1.4E1,2.69E-1,1.3235484E-1,-2.0501096E-2,-1.07385375E-1,9.94181E-2,-3.436649E-2,6.7040645E-2,-6.648621E-2,9.043648E-2,-1.6758658E-2,-1.0492372E-1,4.861861E-2,6.9305316E-2,-4.782461E-3,-7.9361156E-2,1.5806451E-2,-2.7382371E-3,8.25747E-2,3.3827193E-2,1.3318396E-1,9.325387E-2,-5.582228E-2],"split_indices":[1,7,1,5,5,5,7,0,6,7,1,4,1,4,0,0,0,2,1,0,0,3,2,2,0,3,0,6,0,0,3,0,2,0,4,3,3,6,0,7,4,6,0,0,0,0,0,0,0,0,0,0,0,0,0,0,0,0,0,0,0,0,0],"split_type":[0,0,0,0,0,0,0,0,0,0,0,0,0,0,0,0,0,0,0,0,0,0,0,0,0,0,0,0,0,0,0,0,0,0,0,0,0,0,0,0,0,0,0,0,0,0,0,0,0,0,0,0,0,0,0,0,0,0,0,0,0,0,0],"sum_hessian":[1.2454249E2,7.2792046E1,5.1750446E1,4.1762882E1,3.1029163E1,2.93359E1,2.2414547E1,2.1277746E1,2.0485136E1,5.1478024E0,2.5881361E1,8.551633E0,2.0784266E1,2.1277473E1,1.1370748E0,2.0087667E1,1.1900779E0,1.2496167E1,7.9889684E0,4.089454E0,1.0583481E0,5.045781E0,2.083558E1,6.325304E0,2.2263288E0,1.9470646E1,1.3136203E0,2.0084839E1,1.192634E0,1.5580014E0,1.0938166E1,1.4550585E0,6.53391E0,2.7405348E0,2.3052464E0,1.7311012E1,3.5245686E0,2.3450844E0,3.9802198E0,1.1856568E1,7.614077E0,7.013101E0,1.3071737E1,1.5394673E0,9.398699E0,2.6147861E0,3.919124E0,1.2499858E0,1.0552605E0,1.2821992E1,4.4890194E0,1.8785594E0,1.6460093E0,1.0681438E0,1.2769406E0,2.9427078E0,1.0375121E0,8.174076E0,3.6824925E0,2.4690752E0,5.145002E0,5.8292737E0,1.1838275E0],"tree_param":{"num_deleted":"0","num_feature":"8","num_nodes":"63","size_leaf_vector":"1"}},{"base_weights":[-1.956206E-2,-4.1485238E-1,5.241615E-1,-7.92751E-1,-3.3588745E-2,2.781087E-1,1.1022714E0,-1.08238E-1,-4.625269E-1,-2.063787E-1,8.4128517E-1,-3.1403267E-1,5.245213E-1,1.1837532E-1,7.7064433E-3,-9.291874E-3,-6.8654424E-1,8.14716E-2,-8.675476E-1,1.2391055E0,-4.9881343E-2,-6.116622E-1,1.1938827E-1,7.162341E-1,-1.5653035E-1,-7.782132E-1,8.675874E-1,-2.4572998E-1,-1.05667405E-1,-6.8162453E-1,3.057596E-1,-1.1196159E0,-1.807937E-1,1.4690882E-1,4.574903E-2,-8.863153E-2,-3.0531576E-1,-4.4468474E-1,6.1985373E-1,2.4451351E-1,8.665056E-1,-7.5873786E-1,8.822652E-2,-8.927294E-2,-2.2696983E-2,2.7664084E-2,1.0948253E-1,-7.6873384E-2,3.5116266E-2,-2.9099721E-2,-9.4990924E-2,-6.2145885E-2,4.94669E-2,-1.2104862E-1,-3.1088362E-2,-6.1979022E-2,4.782683E-2,5.3106107E-2,-7.075634E-2,1.0797375E-2,-7.914565E-2,1.0328271E-1,-8.7734405E-3,-3.3102077E-2,6.542976E-2,1.0535061E-1,3.925727E-2,-3.207356E-2,-1.0133634E-1],"categories":[],"categories_nodes":[],"categories_segments":[],"categories_sizes":[],"default_left":[0,0,0,0,0,0,0,0,0,0,0,0,0,0,0,0,0,0,0,0,0,0,0,0,0,0,0,0,0,0,0,0,0,0,0,0,0,0,0,0,0,0,0,0,0,0,0,0,0,0,0,0,0,0,0,0,0,0,0,0,0,0,0,0,0,0,0,0,0],"id":8,"left_children":[1,3,5,7,9,11,13,-1,15,17,19,21,23,-1,-1,25,27,29,31,33,-1,35,37,39,41,43,45,47,-1,49,51,53,55,-1,-1,-1,57,59,61,63,65,67,-1,-1,-1,-1,-1,-1,-1,-1,-1,-1,-1,-1,-1,-1,-1,-1,-1,-1,-1,-1,-1,-1,-1,-1,-1,-1,-1],"loss_changes":[2.6519337E1,1.0263178E1,7.0841246E0,2.9255638E0,5.7056475E0,5.6776533E0,1.1763687E0,0E0,1.8704088E0,6.0394855E0,3.940762E0,1.5859438E0,3.6445432E0,0E0,0E0,5.4811916E0,1.7564387E0,4.104524E0,1.4591594E0,2.4339342E-1,0E0,3.2818055E-1,1.8597674E0,1.2973766E0,4.9004707E0,7.039261E-2,2.0781922E-1,2.437342E0,0E0,2.979381E-1,3.5099244E0,1.2552357E-1,1.3871E0,0E0,0E0,0E0,2.0208075E0,7.026323E-1,1.0815555E0,1.7583027E0,9.8264694E-1,2.1243763E-1,0E0,0E0,0E0,0E0,0E0,0E0,0E0,0E0,0E0,0E0,0E0,0E0,0E0,0E0,0E0,0E0,0E0,0E0,0E0,0E0,0E0,0E0,0E0,0E0,0E0,0E0,0E0],"parents":[2147483647,0,0,1,1,2,2,3,3,4,4,5,5,6,6,8,8,9,9,10,10,11,11,12,12,15,15,16,16,17,17,18,18,19,19,21,21,22,22,23,23,24,24,25,25,26,26,27,27,29,29,30,30,31,31,32,32,36,36,37,37,38,38,39,39,40,40,41,41],"right_children":[2,4,6,8,10,12,14,-1,16,18,20,22,24,-1,-1,26,28,30,32,34,-1,36,38,40,42,44,46,48,-1,50,52,54,56,-1,-1,-1,58,60,62,64,66,68,-1,-1,-1,-1,-1,-1,-1,-1,-1,-1,-1,-1,-1,-1,-1,-1,-1,-1,-1,-1,-1,-1,-1,-1,-1,-1,-1],"split_conditions":[1.28E2,2.9E1,1.67E2,3.1E1,1.42E2,3E1,1.441E0,-1.08238E-1,1.4E1,1.4E1,1.23E2,1.46E2,1.96E2,1.1837532E-1,7.7064433E-3,1.12E2,6.8E1,2.19E-1,5.02E-1,1.92E2,-4.9881343E-2,3E0,4.1E1,2.63E-1,3.5E1,2.7E1,7.2E1,2.5E1,-1.05667405E-1,7E0,2.63E1,9E0,1.07E2,1.4690882E-1,4.574903E-2,-8.863153E-2,4E0,2.9E1,5.1E1,1.41E2,6E0,3.99E-1,8.822652E-2,-8.927294E-2,-2.2696983E-2,2.7664084E-2,1.0948253E-1,-7.6873384E-2,3.5116266E-2,-2.9099721E-2,-9.4990924E-2,-6.2145885E-2,4.94669E-2,-1.2104862E-1,-3.1088362E-2,-6.1979022E-2,4.782683E-2,5.3106107E-2,-7.075634E-2,1.0797375E-2,-7.914565E-2,1.0328271E-1,-8.7734405E-3,-3.3102077E-2,6.542976E-2,1.0535061E-1,3.925727E-2,-3.207356E-2,-1.0133634E-1],"split_indices":[1,7,1,5,4,5,6,0,4,4,1,1,4,0,0,1,2,6,6,4,0,0,7,6,7,7,2,7,0,0,5,0,1,0,0,0,0,7,7,1,0,6,0,0,0,0,0,0,0,0,0,0,0,0,0,0,0,0,0,0,0,0,0,0,0,0,0,0,0],"split_type":[0,0,0,0,0,0,0,0,0,0,0,0,0,0,0,0,0,0,0,0,0,0,0,0,0,0,0,0,0,0,0,0,0,0,0,0,0,0,0,0,0,0,0,0,0,0,0,0,0,0,0,0,0,0,0,0,0,0,0,0,0,0,0,0,0,0,0,0,0],"sum_hessian":[1.2137495E2,7.04178E1,5.0957146E1,3.4822937E1,3.5594864E1,3.6782845E1,1.4174303E1,1.7338331E1,1.7484606E1,3.0362328E1,5.2325363E0,1.0728153E1,2.605469E1,1.2987434E1,1.1868691E0,6.127943E0,1.1356663E1,2.1763863E1,8.598464E0,4.0928884E0,1.1396482E0,6.1166296E0,4.611524E0,2.0291164E1,5.7635264E0,3.3249059E0,2.8030372E0,5.9428253E0,5.413837E0,4.480563E0,1.72833E1,5.828757E0,2.7697072E0,2.4827955E0,1.6100928E0,2.226919E0,3.8897107E0,2.2203887E0,2.3911352E0,5.5369973E0,1.4754167E1,3.8191173E0,1.944409E0,2.2400677E0,1.0848382E0,1.3943495E0,1.4086877E0,3.0140176E0,2.9288077E0,2.6731162E0,1.8074471E0,2.5377274E0,1.4745572E1,4.793395E0,1.0353621E0,1.6981614E0,1.0715457E0,1.1592001E0,2.7305105E0,1.1215612E0,1.0988276E0,1.2196562E0,1.1714789E0,2.3827188E0,3.1542783E0,9.702809E0,5.0513577E0,2.234686E0,1.5844313E0],"tree_param":{"num_deleted":"0","num_feature":"8","num_nodes":"69","size_leaf_vector":"1"}},{"base_weights":[-2.0696094E-2,-5.906801E-1,3.0936787E-1,-7.6635504E-1,1.4061567E-1,7.202977E-2,8.7557065E-1,-8.744932E-1,1.6918667E-1,-1.0144285E-1,5.9116906E-1,-7.711397E-1,2.1424884E-1,9.3208903E-1,-9.926206E-3,-9.742935E-1,-4.0483773E-3,-2.849673E-1,8.0799036E-2,-3.3093327E-1,1.1910402E0,-9.1750497E-1,-1.7973458E-2,-1.5474392E-1,5.2869177E-1,9.9108696E-1,-4.092486E-3,-1.0490594E0,-4.942142E-1,-5.4677796E-2,6.0094792E-2,-7.3865674E-2,2.9828355E-2,-8.3991766E-2,4.744855E-2,1.4099512E-1,4.241809E-2,-2.0284323E-2,-1.0252843E-1,1.2521829E-1,-3.0949804E-1,1.1125416E0,3.537215E-1,5.321706E-1,1.1885112E-1,-3.6837574E-2,-1.1087276E-1,1.2103564E-2,-9.773864E-2,-4.779805E-2,4.3112244E-2,1.4035584E-1,2.2896128E-3,5.569142E-2,-3.6079343E-2,8.062583E-2,-5.6270808E-2],"categories":[],"categories_nodes":[],"categories_segments":[],"categories_sizes":[],"default_left":[0,0,0,0,0,0,0,0,0,0,0,0,0,0,0,0,0,0,0,0,0,0,0,0,0,0,0,0,0,0,0,0,0,0,0,0,0,0,0,0,0,0,0,0,0,0,0,0,0,0,0,0,0,0,0,0,0],"id":9,"left_children":[1,3,5,7,9,11,13,15,17,-1,19,21,23,25,-1,27,29,31,-1,33,35,37,-1,39,41,43,-1,45,47,-1,-1,-1,-1,-1,-1,-1,-1,-1,-1,-1,49,51,53,55,-1,-1,-1,-1,-1,-1,-1,-1,-1,-1,-1,-1,-1],"loss_changes":[2.2645761E1,5.7771816E0,1.0186298E1,3.7634296E0,5.4877553E0,6.7404532E0,1.3287678E0,2.793007E0,1.5475878E0,0E0,4.4812126E0,5.3894806E-1,5.616459E0,1.2635746E0,0E0,5.181732E-1,1.7457272E0,1.1182212E0,0E0,1.9131896E0,1.899271E-1,2.7532768E-1,0E0,5.334439E0,2.260569E0,1.1909847E0,0E0,5.7032967E-1,1.8372535E0,0E0,0E0,0E0,0E0,0E0,0E0,0E0,0E0,0E0,0E0,0E0,2.8602808E0,1.719727E0,3.316034E0,2.8138416E0,0E0,0E0,0E0,0E0,0E0,0E0,0E0,0E0,0E0,0E0,0E0,0E0,0E0],"parents":[2147483647,0,0,1,1,2,2,3,3,4,4,5,5,6,6,7,7,8,8,10,10,11,11,12,12,13,13,15,15,16,16,17,17,19,19,20,20,21,21,23,23,24,24,25,25,27,27,28,28,40,40,41,41,42,42,43,43],"right_children":[2,4,6,8,10,12,14,16,18,-1,20,22,24,26,-1,28,30,32,-1,34,36,38,-1,40,42,44,-1,46,48,-1,-1,-1,-1,-1,-1,-1,-1,-1,-1,-1,50,52,54,56,-1,-1,-1,-1,-1,-1,-1,-1,-1,-1,-1,-1,-1],"split_conditions":[1.12E2,7E0,1.55E2,4.1E1,2.38E-1,2.64E1,6.1E1,4.1E1,3.45E1,-1.0144285E-1,1E2,5.2E1,3.1E1,5.43E2,-9.926206E-3,6.74E-1,2E0,1.01E2,8.0799036E-2,2.7E1,1E1,5.8E1,-1.7973458E-2,2.4E1,2E0,3E-1,-4.092486E-3,7.9E1,6.8E1,-5.4677796E-2,6.0094792E-2,-7.3865674E-2,2.9828355E-2,-8.3991766E-2,4.744855E-2,1.4099512E-1,4.241809E-2,-2.0284323E-2,-1.0252843E-1,1.2521829E-1,4.2E1,7.45E-1,8.5E1,2.69E-1,1.1885112E-1,-3.6837574E-2,-1.1087276E-1,1.2103564E-2,-9.773864E-2,-4.779805E-2,4.3112244E-2,1.4035584E-1,2.2896128E-3,5.569142E-2,-3.6079343E-2,8.062583E-2,-5.6270808E-2],"split_indices":[1,0,1,7,6,5,7,3,5,0,1,7,7,4,0,6,0,1,0,3,0,2,0,2,0,6,0,1,2,0,0,0,0,0,0,0,0,0,0,0,5,6,2,6,0,0,0,0,0,0,0,0,0,0,0,0,0],"split_type":[0,0,0,0,0,0,0,0,0,0,0,0,0,0,0,0,0,0,0,0,0,0,0,0,0,0,0,0,0,0,0,0,0,0,0,0,0,0,0,0,0,0,0,0,0,0,0,0,0,0,0,0,0,0,0,0,0],"sum_hessian":[1.1840085E2,4.3130184E1,7.527066E1,3.4737465E1,8.392719E0,5.3832596E1,2.1438066E1,3.119673E1,3.5407367E0,2.0039227E0,6.3887963E0,7.1312995E0,4.6701298E1,2.0304699E1,1.133368E0,2.7880772E1,3.3159578E0,2.3932052E0,1.1475315E0,2.6947856E0,3.694011E0,5.2745233E0,1.8567761E0,2.1720541E1,2.4980757E1,1.912641E1,1.1782887E0,2.3098333E1,4.7824383E0,1.7986529E0,1.5173049E0,1.1962436E0,1.1969616E0,1.6250204E0,1.0697651E0,2.2213032E0,1.4727076E0,1.0689002E0,4.205623E0,1.4496651E0,2.0270876E1,4.52455E0,2.0456207E1,6.864744E0,1.2261665E1,2.4397554E0,2.0658579E1,2.4333794E0,2.3490586E0,1.680301E1,3.4678655E0,3.3434985E0,1.1810516E0,1.6098661E1,4.3575444E0,5.7011495E0,1.1635947E0],"tree_param":{"num_deleted":"0","num_feature":"8","num_nodes":"57","size_leaf_vector":"1"}},{"base_weights":[-1.870609E-2,-3.7004972E-1,4.5065543E-1,-7.2528934E-1,-3.5128735E-2,-1.2723595E-1,6.4086264E-1,-1.0329338E-1,-3.9833757E-1,-8.3685774E-1,1.17716946E-1,-5.6909615E-1,2.9567018E-1,2.6367608E-1,8.1391716E-1,3.231264E-2,-6.2060845E-1,-1.671314E-2,-9.459596E-2,-5.060877E-2,8.330518E-1,-8.356738E-2,-2.822998E-1,-3.2916706E-2,4.9283877E-1,-1.6990836E-1,6.618019E-1,8.7673306E-1,-7.037101E-3,-7.1753126E-1,8.183581E-1,-1.9050317E-1,-1.0059283E-1,2.4706617E-1,-7.598236E-1,-2.6630003E-3,1.122543E-1,5.1495124E-2,-6.788101E-1,7.719844E-1,-1.0981555E-2,-5.256676E-1,3.0200902E-1,1.6898794E-1,1.01172544E-1,2.1762915E-1,1.0074495E0,-8.3176546E-2,-1.9601407E-2,2.6123097E-2,1.03125826E-1,-7.009479E-2,3.5252374E-2,4.497679E-2,-6.570622E-2,-1.0453879E-1,-1.921342E-3,-8.083404E-2,-1.8340057E-2,9.0265326E-2,2.8390903E-2,-8.98078E-3,-7.540401E-2,5.5444848E-2,-1.424526E-2,-4.853883E-2,8.156608E-2,5.937552E-2,-5.2146703E-2,1.0534598E-1,1.5906641E-2],"categories":[],"categories_nodes":[],"categories_segments":[],"categories_sizes":[],"default_left":[0,0,0,0,0,0,0,0,0,0,0,0,0,0,0,0,0,0,0,0,0,0,0,0,0,0,0,0,0,0,0,0,0,0,0,0,0,0,0,0,0,0,0,0,0,0,0,0,0,0,0,0,0,0,0,0,0,0,0,0,0,0,0,0,0,0,0,0,0,0,0],"id":10,"left_children":[1,3,5,7,9,11,13,-1,15,17,19,21,23,25,27,29,31,-1,-1,33,35,-1,37,-1,39,41,43,45,-1,47,49,51,-1,53,55,-1,-1,-1,57,59,-1,61,63,65,-1,67,69,-1,-1,-1,-1,-1,-1,-1,-1,-1,-1,-1,-1,-1,-1,-1,-1,-1,-1,-1,-1,-1,-1,-1,-1],"loss_changes":[1.9389584E1,7.971466E0,5.6163416E0,2.8642693E0,4.4667687E0,2.6542392E0,2.2690487E0,0E0,1.6870983E0,2.6797295E-1,3.7527168E0,2.876346E-1,1.0807515E0,2.433533E0,1.4839153E0,4.6419015E0,1.7202764E0,0E0,0E0,5.6532664E0,1.5050364E0,0E0,1.869763E0,0E0,1.1055474E0,1.3729551E0,1.073062E0,1.8467522E0,0E0,7.845092E-2,1.8438196E-1,2.1000915E0,0E0,3.775747E0,1.6505103E0,0E0,0E0,0E0,8.552551E-2,1.6147137E-2,0E0,3.7905467E-1,4.990244E-1,2.1714926E0,0E0,1.7674893E0,6.0279846E-1,0E0,0E0,0E0,0E0,0E0,0E0,0E0,0E0,0E0,0E0,0E0,0E0,0E0,0E0,0E0,0E0,0E0,0E0,0E0,0E0,0E0,0E0,0E0,0E0],"parents":[2147483647,0,0,1,1,2,2,3,3,4,4,5,5,6,6,8,8,9,9,10,10,11,11,12,12,13,13,14,14,15,15,16,16,19,19,20,20,22,22,24,24,25,25,26,26,27,27,29,29,30,30,31,31,33,33,34,34,38,38,39,39,41,41,42,42,43,43,45,45,46,46],"right_children":[2,4,6,8,10,12,14,-1,16,18,20,22,24,26,28,30,32,-1,-1,34,36,-1,38,-1,40,42,44,46,-1,48,50,52,-1,54,56,-1,-1,-1,58,60,-1,62,64,66,-1,68,70,-1,-1,-1,-1,-1,-1,-1,-1,-1,-1,-1,-1,-1,-1,-1,-1,-1,-1,-1,-1,-1,-1,-1,-1],"split_conditions":[1.28E2,2.9E1,3E1,3.1E1,2.63E1,1.46E2,3.05E-1,-1.0329338E-1,1.4E1,2.21E1,1.42E2,3E0,2E0,3.8E1,1.441E0,1.12E2,6.8E1,-1.671314E-2,-9.459596E-2,1.4E1,3.37E1,-8.356738E-2,4E0,-3.2916706E-2,2.76E1,2.6E1,1.45E2,2.5E1,-7.037101E-3,2.7E1,7.2E1,2.5E1,-1.0059283E-1,8.6E1,5.02E-1,-2.6630003E-3,1.122543E-1,5.1495124E-2,5.8E1,2.6E1,-1.0981555E-2,8E0,2.6E1,7E0,1.01172544E-1,1.96E2,1.1E1,-8.3176546E-2,-1.9601407E-2,2.6123097E-2,1.03125826E-1,-7.009479E-2,3.5252374E-2,4.497679E-2,-6.570622E-2,-1.0453879E-1,-1.921342E-3,-8.083404E-2,-1.8340057E-2,9.0265326E-2,2.8390903E-2,-8.98078E-3,-7.540401E-2,5.5444848E-2,-1.424526E-2,-4.853883E-2,8.156608E-2,5.937552E-2,-5.2146703E-2,1.0534598E-1,1.5906641E-2],"split_indices":[1,7,5,5,5,1,6,0,4,5,4,0,0,7,6,1,2,0,0,4,5,0,0,0,5,3,1,7,0,7,2,7,0,2,6,0,0,0,7,5,0,3,7,0,0,4,0,0,0,0,0,0,0,0,0,0,0,0,0,0,0,0,0,0,0,0,0,0,0,0,0],"split_type":[0,0,0,0,0,0,0,0,0,0,0,0,0,0,0,0,0,0,0,0,0,0,0,0,0,0,0,0,0,0,0,0,0,0,0,0,0,0,0,0,0,0,0,0,0,0,0,0,0,0,0,0,0,0,0,0,0,0,0,0,0,0,0,0,0,0,0,0,0,0,0],"sum_hessian":[1.1556751E2,6.62141E1,4.935341E1,3.1566744E1,3.4647358E1,1.2303557E1,3.704985E1,1.5151082E1,1.6415663E1,4.8311434E0,2.9816216E1,5.8478913E0,6.4556656E0,1.24461355E1,2.4603716E1,5.879243E0,1.053642E1,1.031447E0,3.7996962E0,2.488886E1,4.9273553E0,2.0389044E0,3.8089871E0,1.387893E0,5.067773E0,6.2321525E0,6.213983E0,2.297987E1,1.6238453E0,3.0535183E0,2.8257246E0,5.6850276E0,4.851392E0,1.7989752E1,6.899108E0,1.4700025E0,3.4573529E0,1.1659465E0,2.6430404E0,3.2714734E0,1.7962993E0,3.4884524E0,2.7436998E0,3.1959302E0,3.0180526E0,4.244246E0,1.8735624E1,2.0168483E0,1.03667E0,1.3970001E0,1.4287244E0,2.7805233E0,2.9045045E0,1.5105666E1,2.8840861E0,4.6822176E0,2.2168906E0,1.5944844E0,1.0485561E0,1.9105595E0,1.360914E0,1.678399E0,1.8100535E0,1.5920228E0,1.151677E0,1.7124689E0,1.4834615E0,2.9431326E0,1.3011132E0,1.7542515E1,1.1931088E0],"tree_param":{"num_deleted":"0","num_feature":"8","num_nodes":"71","size_leaf_vector":"1"}},{"base_weights":[-1.9627145E-2,-5.362501E-1,2.6721373E-1,-7.257406E-1,6.091542E-2,5.8737516E-2,7.758396E-1,-8.2828164E-1,-3.0139647E-2,-2.6383165E-1,1.12431504E-1,-7.141048E-1,1.8247569E-1,8.31393E-1,-1.1954197E-2,-8.8716334E-1,-6.14356E-3,-7.148773E-2,3.552216E-1,7.026412E-2,-9.2725255E-2,-8.6501735E-1,-1.4888224E-2,-1.4600167E-1,4.58332E-1,8.904215E-1,-6.7898133E-3,-1.0177234E0,-5.766543E-1,-2.8547272E-2,7.763344E-2,-3.4778237E-1,7.1022235E-2,-1.651238E-2,-9.777426E-2,1.16141E-1,-2.927936E-1,9.908551E-1,2.995461E-1,4.634952E-1,1.0843986E0,-1.0564615E-1,-3.0696033E-2,-2.0349236E-2,-9.771209E-2,-6.636276E-2,-6.0056145E-3,-4.493076E-2,3.799283E-2,1.266254E-1,-1.1888894E-3,6.1470614E-4,7.6725975E-2,7.166524E-2,-5.2579314E-2,2.9448787E-2,1.1300725E-1],"categories":[],"categories_nodes":[],"categories_segments":[],"categories_sizes":[],"default_left":[0,0,0,0,0,0,0,0,0,0,0,0,0,0,0,0,0,0,0,0,0,0,0,0,0,0,0,0,0,0,0,0,0,0,0,0,0,0,0,0,0,0,0,0,0,0,0,0,0,0,0,0,0,0,0,0,0],"id":11,"left_children":[1,3,5,7,9,11,13,15,17,19,-1,21,23,25,-1,27,-1,-1,29,31,-1,33,-1,35,37,39,-1,41,43,-1,-1,45,-1,-1,-1,-1,47,49,51,53,55,-1,-1,-1,-1,-1,-1,-1,-1,-1,-1,-1,-1,-1,-1,-1,-1],"loss_changes":[1.6991863E1,4.6749344E0,7.7771444E0,2.1963806E0,4.0193944E0,5.2377386E0,1.1621456E0,1.1693287E0,1.5835415E0,2.0750687E0,0E0,5.1730895E-1,4.310643E0,1.1350431E0,0E0,4.3055153E-1,0E0,0E0,1.2717838E0,2.1091683E0,0E0,2.9380894E-1,0E0,4.5883985E0,1.8760958E0,1.0764132E0,0E0,1.2617302E-1,1.2561412E0,0E0,0E0,4.037624E-1,0E0,0E0,0E0,0E0,2.3502636E0,1.5253749E0,2.9083776E0,2.3060608E0,1.13274574E-1,0E0,0E0,0E0,0E0,0E0,0E0,0E0,0E0,0E0,0E0,0E0,0E0,0E0,0E0,0E0,0E0],"parents":[2147483647,0,0,1,1,2,2,3,3,4,4,5,5,6,6,7,7,8,8,9,9,11,11,12,12,13,13,15,15,18,18,19,19,21,21,23,23,24,24,25,25,27,27,28,28,31,31,36,36,37,37,38,38,39,39,40,40],"right_children":[2,4,6,8,10,12,14,16,18,20,-1,22,24,26,-1,28,-1,-1,30,32,-1,34,-1,36,38,40,-1,42,44,-1,-1,46,-1,-1,-1,-1,48,50,52,54,56,-1,-1,-1,-1,-1,-1,-1,-1,-1,-1,-1,-1,-1,-1,-1,-1],"split_conditions":[1.12E2,6.4E-1,1.55E2,3.82E1,8E0,2.64E1,6.1E1,1.27E2,1.97E-1,9.17E-1,1.12431504E-1,5.2E1,3.1E1,5.43E2,-1.1954197E-2,3.1E1,-6.14356E-3,-7.148773E-2,2.7E1,3E1,-9.2725255E-2,5.8E1,-1.4888224E-2,2.4E1,2E0,3E-1,-6.7898133E-3,5E0,3.25E1,-2.8547272E-2,7.763344E-2,9.7E1,7.1022235E-2,-1.651238E-2,-9.777426E-2,1.16141E-1,4.2E1,7.45E-1,5.14E-1,2.69E-1,6E1,-1.0564615E-1,-3.0696033E-2,-2.0349236E-2,-9.771209E-2,-6.636276E-2,-6.0056145E-3,-4.493076E-2,3.799283E-2,1.266254E-1,-1.1888894E-3,6.1470614E-4,7.6725975E-2,7.166524E-2,-5.2579314E-2,2.9448787E-2,1.1300725E-1],"split_indices":[1,6,1,5,0,5,7,4,6,6,0,7,7,4,0,7,0,0,7,3,0,2,0,2,0,6,0,0,5,0,0,1,0,0,0,0,5,6,6,6,2,0,0,0,0,0,0,0,0,0,0,0,0,0,0,0,0],"split_type":[0,0,0,0,0,0,0,0,0,0,0,0,0,0,0,0,0,0,0,0,0,0,0,0,0,0,0,0,0,0,0,0,0,0,0,0,0,0,0,0,0,0,0,0,0,0,0,0,0,0,0,0,0,0,0,0,0],"sum_hessian":[1.12696815E2,3.9922947E1,7.2773865E1,3.014282E1,9.780126E0,5.2408207E1,2.036566E1,2.6103994E1,4.038826E0,8.068131E0,1.7119942E0,6.5744557E0,4.583375E1,1.9243193E1,1.1224668E0,2.409684E1,2.0071557E0,1.1465211E0,2.8923047E0,5.9605255E0,2.1076057E0,4.770379E0,1.8040769E0,2.1136312E1,2.469744E1,1.8067148E1,1.176045E0,1.5360567E1,8.736273E0,1.2748328E0,1.6174719E0,3.881517E0,2.0790086E0,1.0036573E0,3.7667217E0,1.4358526E0,1.9700459E1,4.4691105E0,2.0228329E1,6.703273E0,1.1363875E1,1.4105416E1,1.2551501E0,5.3029895E0,3.4332833E0,1.227548E0,2.6539688E0,1.6251522E1,3.448938E0,3.2999935E0,1.1691167E0,1.3053161E1,7.175169E0,5.5568676E0,1.146405E0,1.028255E0,1.033562E1],"tree_param":{"num_deleted":"0","num_feature":"8","num_nodes":"57","size_leaf_vector":"1"}},{"base_weights":[-1.7953675E-2,-5.080138E-1,2.4911566E-1,-6.7503136E-1,1.2982073E-1,9.9588506E-2,8.9498484E-1,-7.8504676E-1,1.7589867E-1,-9.504333E-2,5.3965104E-1,-4.3360868E-1,2.410675E-1,9.798493E-1,-2.0430933E-3,-8.9049584E-1,3.6967326E-2,-2.4268326E-1,7.362838E-2,-3.0570307E-1,1.0712919E0,3.0088207E-1,-7.157102E-1,-1.0772773E-1,4.0103546E-1,5.1292986E-1,1.1393638E-1,-9.714718E-1,-4.213715E-1,-4.8184533E-2,5.7806622E-2,-6.93744E-2,3.0380888E-2,-7.944653E-2,4.429303E-2,1.2644376E-1,3.8474876E-2,-3.0097697E-2,6.0122687E-2,-1.10618606E-1,6.898049E-2,1.1132847E-1,-7.708517E-2,1.2822849E-2,5.84523E-1,-2.2930905E-2,8.6178E-2,-2.7715236E-2,-1.03841804E-1,1.733561E-2,-9.177416E-2,5.6257553E-2,-5.0032925E-2,-3.0149793E-2,8.353359E-2,6.952924E-2,-2.2097668E-2,1.0190158E-1,4.4290643E-2],"categories":[],"categories_nodes":[],"categories_segments":[],"categories_sizes":[],"default_left":[0,0,0,0,0,0,0,0,0,0,0,0,0,0,0,0,0,0,0,0,0,0,0,0,0,0,0,0,0,0,0,0,0,0,0,0,0,0,0,0,0,0,0,0,0,0,0,0,0,0,0,0,0,0,0,0,0,0,0],"id":12,"left_children":[1,3,5,7,9,11,13,15,17,-1,19,21,23,25,-1,27,29,31,-1,33,35,37,39,41,43,45,-1,47,49,-1,-1,-1,-1,-1,-1,-1,-1,-1,-1,-1,51,53,-1,55,57,-1,-1,-1,-1,-1,-1,-1,-1,-1,-1,-1,-1,-1,-1],"loss_changes":[1.4671897E1,4.2988205E0,6.922623E0,3.085928E0,4.515918E0,4.636776E0,1.0706282E0,2.4657707E0,1.2159399E0,0E0,3.560135E0,2.89987E0,2.7283537E0,3.3890152E-1,0E0,5.37138E-1,1.443911E0,1.0201193E0,0E0,1.6527014E0,1.2849092E-1,9.581233E-1,3.035181E0,2.3983464E0,2.3577414E0,1.4859241E0,0E0,6.642456E-1,1.7631274E0,0E0,0E0,0E0,0E0,0E0,0E0,0E0,0E0,0E0,0E0,0E0,1.447658E0,4.089742E0,0E0,2.0172322E0,9.3467426E-1,0E0,0E0,0E0,0E0,0E0,0E0,0E0,0E0,0E0,0E0,0E0,0E0,0E0,0E0],"parents":[2147483647,0,0,1,1,2,2,3,3,4,4,5,5,6,6,7,7,8,8,10,10,11,11,12,12,13,13,15,15,16,16,17,17,19,19,20,20,21,21,22,22,23,23,24,24,25,25,27,27,28,28,40,40,41,41,43,43,44,44],"right_children":[2,4,6,8,10,12,14,16,18,-1,20,22,24,26,-1,28,30,32,-1,34,36,38,40,42,44,46,-1,48,50,-1,-1,-1,-1,-1,-1,-1,-1,-1,-1,-1,52,54,-1,56,58,-1,-1,-1,-1,-1,-1,-1,-1,-1,-1,-1,-1,-1,-1],"split_conditions":[1.12E2,7E0,1.67E2,4.1E1,2.38E-1,2.5E1,1.441E0,4.1E1,3.45E1,-9.504333E-2,1E2,8E0,3.01E1,1.7E1,-2.0430933E-3,6.74E-1,2E0,1.01E2,7.362838E-2,2.7E1,1E1,2.69E-1,3.4E1,5.5E1,3.1E1,7.2E1,1.1393638E-1,7.9E1,6.8E1,-4.8184533E-2,5.7806622E-2,-6.93744E-2,3.0380888E-2,-7.944653E-2,4.429303E-2,1.2644376E-1,3.8474876E-2,-3.0097697E-2,6.0122687E-2,-1.10618606E-1,7E1,4.1E1,-7.708517E-2,2.6E1,6.8E1,-2.2930905E-2,8.6178E-2,-2.7715236E-2,-1.03841804E-1,1.733561E-2,-9.177416E-2,5.6257553E-2,-5.0032925E-2,-3.0149793E-2,8.353359E-2,6.952924E-2,-2.2097668E-2,1.0190158E-1,4.4290643E-2],"split_indices":[1,0,1,7,6,7,6,3,5,0,1,3,5,3,0,6,0,1,0,3,0,6,3,7,7,2,0,1,2,0,0,0,0,0,0,0,0,0,0,0,2,7,0,7,2,0,0,0,0,0,0,0,0,0,0,0,0,0,0],"split_type":[0,0,0,0,0,0,0,0,0,0,0,0,0,0,0,0,0,0,0,0,0,0,0,0,0,0,0,0,0,0,0,0,0,0,0,0,0,0,0,0,0,0,0,0,0,0,0,0,0,0,0,0,0,0,0,0,0,0,0],"sum_hessian":[1.1013493E2,3.853069E1,7.160425E1,3.048884E1,8.04185E0,5.9080524E1,1.2523721E1,2.7066837E1,3.4220026E0,1.8490167E0,6.192833E0,1.1956141E1,4.7124386E1,1.1396784E1,1.1269367E0,2.39156E1,3.1512368E0,2.2833672E0,1.1386355E0,2.555057E0,3.6377761E0,3.2993224E0,8.656819E0,1.4919774E1,3.220461E1,3.9755132E0,7.421271E0,1.9481981E1,4.433618E0,1.6646525E0,1.4865843E0,1.1032902E0,1.1800768E0,1.5087892E0,1.0462679E0,2.1821306E0,1.4556456E0,1.0976478E0,2.2016745E0,5.5068197E0,3.1499996E0,1.1840502E1,3.079273E0,1.0679471E1,2.1525139E1,1.3806382E0,2.5948749E0,2.1652703E0,1.7316711E1,2.3130188E0,2.1205993E0,1.6935287E0,1.4564708E0,7.912432E0,3.9280694E0,2.2213588E0,8.458113E0,3.7682397E0,1.7756899E1],"tree_param":{"num_deleted":"0","num_feature":"8","num_nodes":"59","size_leaf_vector":"1"}},{"base_weights":[-1.5892653E-2,-4.8107392E-1,2.3178814E-1,-6.6269445E-1,6.490255E-2,9.202612E-2,8.478483E-1,-9.8769414E-1,-3.8705206E-1,-4.3812135E-1,6.420782E-1,-4.090197E-1,2.222692E-1,3.3150432E-1,1.04855716E-1,-1.0468411E-1,-1.6325004E-2,-5.4686016E-1,3.128039E-1,-7.735336E-1,1.06021404E-1,1.6772995E-3,9.613657E-2,2.7791187E-1,-6.823968E-1,-1.00135244E-1,3.687927E-1,6.0428214E-1,-2.7125776E-2,-3.8064578E-1,-9.896445E-2,-4.788557E-2,1.0284139E-1,-8.839463E-2,-2.3171363E-2,7.978843E-2,-6.878394E-2,-1.3362876E-2,7.1422495E-2,-1.070885E-1,6.374612E-2,1.05119474E-1,-7.3511384E-2,7.748715E-1,1.9946153E-1,-2.1782888E-3,8.75816E-2,-5.869354E-2,1.2689709E-2,5.264057E-2,-4.7614396E-2,-2.7742544E-2,7.715608E-2,1.0905367E-1,4.0822137E-2,-7.61983E-2,3.157234E-2],"categories":[],"categories_nodes":[],"categories_segments":[],"categories_sizes":[],"default_left":[0,0,0,0,0,0,0,0,0,0,0,0,0,0,0,0,0,0,0,0,0,0,0,0,0,0,0,0,0,0,0,0,0,0,0,0,0,0,0,0,0,0,0,0,0,0,0,0,0,0,0,0,0,0,0,0,0],"id":13,"left_children":[1,3,5,7,9,11,13,15,17,19,21,23,25,27,-1,-1,-1,29,31,33,35,-1,-1,37,39,41,43,45,-1,47,-1,-1,-1,-1,-1,-1,-1,-1,-1,-1,49,51,-1,53,55,-1,-1,-1,-1,-1,-1,-1,-1,-1,-1,-1,-1],"loss_changes":[1.2600846E1,3.809907E0,6.0705943E0,2.179325E0,3.2988026E0,3.9625175E0,1.0082674E0,4.3757534E-1,2.0854251E0,1.2040486E0,1.0311449E0,2.5543528E0,2.2919545E0,1.0064692E0,0E0,0E0,0E0,6.7562866E-1,2.6554554E0,2.9919386E-2,2.3194978E0,0E0,0E0,8.667079E-1,2.763135E0,2.1237772E0,2.1168861E0,6.714755E-1,0E0,1.3330975E0,0E0,0E0,0E0,0E0,0E0,0E0,0E0,0E0,0E0,0E0,1.281508E0,3.462365E0,0E0,6.398039E-1,2.99695E0,0E0,0E0,0E0,0E0,0E0,0E0,0E0,0E0,0E0,0E0,0E0,0E0],"parents":[2147483647,0,0,1,1,2,2,3,3,4,4,5,5,6,6,7,7,8,8,9,9,10,10,11,11,12,12,13,13,17,17,18,18,19,19,20,20,23,23,24,24,25,25,26,26,27,27,29,29,40,40,41,41,43,43,44,44],"right_children":[2,4,6,8,10,12,14,16,18,20,22,24,26,28,-1,-1,-1,30,32,34,36,-1,-1,38,40,42,44,46,-1,48,-1,-1,-1,-1,-1,-1,-1,-1,-1,-1,50,52,-1,54,56,-1,-1,-1,-1,-1,-1,-1,-1,-1,-1,-1,-1],"split_conditions":[1.12E2,6.4E-1,1.67E2,2.6E1,3E0,2.5E1,1.7E1,4E0,3.82E1,3.25E1,3.1E1,8E0,3.01E1,5.39E-1,1.04855716E-1,-1.0468411E-1,-1.6325004E-2,3.3E1,2.87E-1,7E1,3.97E1,1.6772995E-3,9.613657E-2,3.15E-1,3.4E1,5.5E1,3.31E1,7.2E1,-2.7125776E-2,2.4E1,-9.896445E-2,-4.788557E-2,1.0284139E-1,-8.839463E-2,-2.3171363E-2,7.978843E-2,-6.878394E-2,-1.3362876E-2,7.1422495E-2,-1.070885E-1,7E1,4.1E1,-7.3511384E-2,7.8E1,3.37E1,-2.1782888E-3,8.75816E-2,-5.869354E-2,1.2689709E-2,5.264057E-2,-4.7614396E-2,-2.7742544E-2,7.715608E-2,1.0905367E-1,4.0822137E-2,-7.61983E-2,3.157234E-2],"split_indices":[1,6,1,7,0,7,3,0,5,5,3,3,5,6,0,0,0,3,6,2,5,0,0,6,3,7,5,2,0,3,0,0,0,0,0,0,0,0,0,0,2,7,0,2,5,0,0,0,0,0,0,0,0,0,0,0,0],"split_type":[0,0,0,0,0,0,0,0,0,0,0,0,0,0,0,0,0,0,0,0,0,0,0,0,0,0,0,0,0,0,0,0,0,0,0,0,0,0,0,0,0,0,0,0,0,0,0,0,0,0,0,0,0,0,0,0,0],"sum_hessian":[1.07398895E2,3.698787E1,7.041102E1,2.7594656E1,9.393214E0,5.832789E1,1.2083135E1,1.147806E1,1.6116596E1,5.1477423E0,4.245472E0,1.15922E1,4.6735687E1,4.12439E0,7.958744E0,1.0458031E1,1.0200292E0,1.3298558E1,2.8180385E0,2.923883E0,2.2238593E0,1.7908108E0,2.4546614E0,3.2953026E0,8.296898E0,1.4702182E1,3.2033504E1,2.8376844E0,1.286706E0,1.1021081E1,2.2774777E0,1.4950019E0,1.3230367E0,1.9043695E0,1.0195135E0,1.1855577E0,1.0383015E0,2.0527928E0,1.2425098E0,5.169901E0,3.126997E0,1.1741299E1,2.9608836E0,8.37443E0,2.3659075E1,1.1366748E0,1.7010095E0,7.7248917E0,3.2961893E0,1.6973912E0,1.4296057E0,7.830324E0,3.9109745E0,3.4391708E0,4.9352584E0,1.9531531E0,2.1705921E1],"tree_param":{"num_deleted":"0","num_feature":"8","num_nodes":"57","size_leaf_vector":"1"}},{"base_weights":[-1.5282537E-2,-2.99106E-1,3.4959272E-1,-8.853145E-1,-1.4763448E-1,1.764142E-1,8.036761E-1,-9.450229E-2,-1.1051709E-2,-6.9787747E-1,1.0771916E-2,-2.6359823E-1,3.5101813E-1,8.921655E-1,-6.1109625E-3,2.0431383E-2,-8.6026394E-1,-3.4847727E-1,1.4444089E-1,-5.860026E-2,-7.186057E-2,5.0752926E-1,-2.0439215E-1,4.649383E-1,1.0445815E-1,-9.7812496E-2,-3.9070773E-1,-5.1963246E-1,3.135405E-2,6.3034695E-1,-5.0960306E-2,2.8188887E-1,-6.597715E-1,3.7916923E-1,1.0986383E-1,-7.1658003E-1,6.980943E-2,-2.1166716E-2,7.978952E-2,-6.707089E-2,7.388541E-3,-6.222967E-2,1.3615595E-2,-1.981285E-2,1.4312412E-1,-1.1130559E-1,1.0755461E-2,-9.204143E-3,9.129271E-2,-8.176522E-2,-1.4714035E-2,7.4173525E-2,-8.434582E-3,-3.2964643E-2,-9.121578E-2],"categories":[],"categories_nodes":[],"categories_segments":[],"categories_sizes":[],"default_left":[0,0,0,0,0,0,0,0,0,0,0,0,0,0,0,0,0,0,0,0,0,0,0,0,0,0,0,0,0,0,0,0,0,0,0,0,0,0,0,0,0,0,0,0,0,0,0,0,0,0,0,0,0,0,0],"id":14,"left_children":[1,3,5,7,9,11,13,-1,-1,15,17,19,21,23,-1,-1,25,27,29,31,-1,33,35,37,-1,-1,39,41,-1,43,45,47,49,51,-1,53,-1,-1,-1,-1,-1,-1,-1,-1,-1,-1,-1,-1,-1,-1,-1,-1,-1,-1,-1],"loss_changes":[1.1083935E1,5.212189E0,3.542183E0,4.5788383E-1,4.279901E0,2.7964644E0,1.0227575E0,0E0,0E0,1.7832036E0,1.9252728E0,9.437608E-1,2.3312857E0,2.6592445E-1,0E0,0E0,1.4305496E-1,1.395838E0,2.801096E0,1.9003534E0,0E0,1.1220822E0,3.4338374E0,1.2585999E0,0E0,0E0,5.1387215E-1,6.921551E-1,0E0,5.883011E0,3.7772064E0,1.5110477E0,1.4901996E-1,3.1191268E0,0E0,4.304099E-2,0E0,0E0,0E0,0E0,0E0,0E0,0E0,0E0,0E0,0E0,0E0,0E0,0E0,0E0,0E0,0E0,0E0,0E0,0E0],"parents":[2147483647,0,0,1,1,2,2,3,3,4,4,5,5,6,6,9,9,10,10,11,11,12,12,13,13,16,16,17,17,18,18,19,19,21,21,22,22,23,23,26,26,27,27,29,29,30,30,31,31,32,32,33,33,35,35],"right_children":[2,4,6,8,10,12,14,-1,-1,16,18,20,22,24,-1,-1,26,28,30,32,-1,34,36,38,-1,-1,40,42,-1,44,46,48,50,52,-1,54,-1,-1,-1,-1,-1,-1,-1,-1,-1,-1,-1,-1,-1,-1,-1,-1,-1,-1,-1],"split_conditions":[1.28E2,2.65E1,1.67E2,1.22E2,2.5E1,3E1,1.441E0,-9.450229E-2,-1.1051709E-2,8E0,1E2,1.35E2,1.96E2,1.7E1,-6.1109625E-3,2.0431383E-2,5.29E-1,8.4E1,6.8E1,5.4E1,-7.186057E-2,9.2E1,3.5E1,7.2E1,1.0445815E-1,-9.7812496E-2,3.1E1,4.1E1,3.135405E-2,4E0,7E1,4.1E1,2.69E-1,7.8E1,1.0986383E-1,3.99E-1,6.980943E-2,-2.1166716E-2,7.978952E-2,-6.707089E-2,7.388541E-3,-6.222967E-2,1.3615595E-2,-1.981285E-2,1.4312412E-1,-1.1130559E-1,1.0755461E-2,-9.204143E-3,9.129271E-2,-8.176522E-2,-1.4714035E-2,7.4173525E-2,-8.434582E-3,-3.2964643E-2,-9.121578E-2],"split_indices":[1,5,1,1,7,5,6,0,0,3,1,4,4,3,0,0,6,4,2,7,0,2,7,2,0,0,3,3,0,0,2,7,6,2,0,6,0,0,0,0,0,0,0,0,0,0,0,0,0,0,0,0,0,0,0],"split_type":[0,0,0,0,0,0,0,0,0,0,0,0,0,0,0,0,0,0,0,0,0,0,0,0,0,0,0,0,0,0,0,0,0,0,0,0,0,0,0,0,0,0,0,0,0,0,0,0,0,0,0,0,0,0,0],"sum_hessian":[1.0501923E2,5.917183E1,4.5847404E1,1.1155249E1,4.801658E1,3.4194717E1,1.1652689E1,1.0153114E1,1.0021342E0,9.972014E0,3.8044567E1,9.569446E0,2.462527E1,1.0542288E1,1.1104017E0,1.4817076E0,8.490307E0,9.881091E0,2.8163473E1,7.3753586E0,2.194087E0,1.9278828E1,5.3464446E0,3.8371336E0,6.705154E0,5.921018E0,2.5692887E0,8.022156E0,1.8589352E0,7.4389796E0,2.0724495E1,5.0476117E0,2.3277469E0,1.7187904E1,2.0909216E0,3.542158E0,1.8042865E0,1.3856399E0,2.451494E0,1.3263038E0,1.2429848E0,6.9804344E0,1.0417218E0,4.026466E0,3.4125135E0,1.9093728E0,1.8815123E1,3.7058203E0,1.3417914E0,1.3247411E0,1.0030059E0,9.307359E0,7.880547E0,2.090932E0,1.4512261E0],"tree_param":{"num_deleted":"0","num_feature":"8","num_nodes":"55","size_leaf_vector":"1"}},{"base_weights":[-1.4871768E-2,-1.5828964E-1,6.26071E-1,-8.062417E-1,-3.0803071E-2,6.7941564E-1,-1.2060336E-2,-8.979628E-1,-1.394625E-2,-1.690868E-1,4.6489725E-1,2.6554048E-1,9.089438E-1,-9.411839E-1,-2.2669008E-2,-2.7196345E-1,3.990328E-1,-3.5878757E-1,6.961129E-1,4.9219584E-1,-4.103868E-2,1.0763106E0,3.489501E-1,-1.0117703E-1,-2.6374483E-2,-1.6507588E-1,-1.1925296E-1,-1.777352E-1,7.038314E-1,3.1260483E-2,-9.011332E-2,1.8768393E-1,9.489304E-1,-2.1308083E-2,7.6950085E-1,2.5546202E-2,1.1596731E-1,-1.2331501E-2,7.4667715E-2,-6.933406E-2,-2.2520439E-5,-5.385999E-2,4.3310896E-2,8.915464E-2,-1.350721E-2,6.9680706E-2,-4.192811E-2,2.4635969E-2,1.0600889E-1,1.0568746E-1,-1.0393571E-2],"categories":[],"categories_nodes":[],"categories_segments":[],"categories_sizes":[],"default_left":[0,0,0,0,0,0,0,0,0,0,0,0,0,0,0,0,0,0,0,0,0,0,0,0,0,0,0,0,0,0,0,0,0,0,0,0,0,0,0,0,0,0,0,0,0,0,0,0,0,0,0],"id":15,"left_children":[1,3,5,7,9,11,-1,13,-1,15,17,19,21,23,-1,25,27,29,31,33,-1,35,37,-1,-1,39,-1,41,43,-1,-1,45,47,-1,49,-1,-1,-1,-1,-1,-1,-1,-1,-1,-1,-1,-1,-1,-1,-1,-1],"loss_changes":[9.626554E0,7.037347E0,8.4483385E-1,7.3194504E-1,5.046734E0,1.4711189E0,0E0,1.3877869E-1,0E0,3.4634526E0,3.3112903E0,1.403654E0,6.725626E-1,2.6324463E-1,0E0,4.6438684E0,1.7435176E0,1.804958E0,1.4790411E0,1.401698E0,0E0,2.600813E-1,8.533675E-1,0E0,0E0,3.9394372E0,0E0,1.110896E0,1.1006663E0,0E0,0E0,2.0004585E0,3.9203167E-1,0E0,1.3044722E0,0E0,0E0,0E0,0E0,0E0,0E0,0E0,0E0,0E0,0E0,0E0,0E0,0E0,0E0,0E0,0E0],"parents":[2147483647,0,0,1,1,2,2,3,3,4,4,5,5,7,7,9,9,10,10,11,11,12,12,13,13,15,15,16,16,17,17,18,18,19,19,21,21,22,22,25,25,27,27,28,28,31,31,32,32,34,34],"right_children":[2,4,6,8,10,12,-1,14,-1,16,18,20,22,24,-1,26,28,30,32,34,-1,36,38,-1,-1,40,-1,42,44,-1,-1,46,48,-1,50,-1,-1,-1,-1,-1,-1,-1,-1,-1,-1,-1,-1,-1,-1,-1,-1],"split_conditions":[1.55E2,2.64E1,5.43E2,5.2E1,4.3E1,3.05E-1,-1.2060336E-2,1.32E2,-1.394625E-2,4.08E1,2.33E-1,2.69E-1,4.4E1,6.74E-1,-2.2669008E-2,1.96E2,1.15E2,1.8E-1,8E0,3E0,-4.103868E-2,2.5E1,1.7E2,-1.0117703E-1,-2.6374483E-2,1E2,-1.1925296E-1,4E0,8.16E-1,3.1260483E-2,-9.011332E-2,6E0,2.89E1,-2.1308083E-2,9E0,2.5546202E-2,1.1596731E-1,-1.2331501E-2,7.4667715E-2,-6.933406E-2,-2.2520439E-5,-5.385999E-2,4.3310896E-2,8.915464E-2,-1.350721E-2,6.9680706E-2,-4.192811E-2,2.4635969E-2,1.0600889E-1,1.0568746E-1,-1.0393571E-2],"split_indices":[1,5,4,7,7,6,0,1,0,5,6,6,7,6,0,4,1,6,3,0,0,7,4,0,0,1,0,0,6,0,0,0,5,0,0,0,0,0,0,0,0,0,0,0,0,0,0,0,0,0,0],"split_type":[0,0,0,0,0,0,0,0,0,0,0,0,0,0,0,0,0,0,0,0,0,0,0,0,0,0,0,0,0,0,0,0,0,0,0,0,0,0,0,0,0,0,0,0,0,0,0,0,0,0,0],"sum_hessian":[1.0264642E2,8.4493195E1,1.815323E1,1.3015849E1,7.147735E1,1.7026857E1,1.126373E0,1.1137126E1,1.8787229E0,5.640198E1,1.5075364E1,6.8436246E0,1.0183232E1,1.0085655E1,1.0514712E0,4.819584E1,8.206141E0,3.1833217E0,1.1892043E1,5.3286247E0,1.5150001E0,7.130204E0,3.0530286E0,8.686985E0,1.3986702E0,4.4238586E1,3.9572527E0,2.9813783E0,5.2247634E0,1.6117164E0,1.5716054E0,4.5281243E0,7.3639183E0,1.5692116E0,3.759413E0,1.0320783E0,6.098126E0,1.7111467E0,1.341882E0,9.759227E0,3.447936E1,1.9485279E0,1.0328505E0,4.218148E0,1.0066148E0,2.382044E0,2.1460803E0,1.4452969E0,5.9186215E0,2.6706953E0,1.0887178E0],"tree_param":{"num_deleted":"0","num_feature":"8","num_nodes":"51","size_leaf_vector":"1"}},{"base_weights":[-1.3596085E-2,-4.7988415E-1,1.623522E-1,-9.3368846E-1,-2.0984475E-1,1.8376643E-2,5.932888E-1,-1.0057279E-1,-1.60842E-2,-3.8504714E-1,2.8972515E-1,-1.18998274E-1,4.171303E-1,1.1246864E-1,6.961837E-1,-4.985601E-1,3.8619235E-2,-4.507635E-2,6.6280377E-1,-2.3431659E-1,5.6673175E-1,6.987749E-1,-3.814508E-1,6.102368E-2,-3.263566E-2,7.693966E-1,-1.1427528E-2,-5.8236223E-1,1.3036512E-2,1.109245E-1,-3.1152735E-2,-1.0467971E-1,-1.12345E-1,6.755675E-2,9.8226994E-2,9.343193E-1,5.3591985E-2,-6.427648E-1,2.3402823E-2,3.8439485E-1,9.2793375E-1,-1.3463156E-2,-7.951111E-2,-3.333037E-2,3.2316376E-2,5.239879E-2,-4.93549E-2,2.0944018E-2,1.031546E-1,-5.6786347E-2,8.074049E-2,-1.5695265E-2,-7.8291945E-2,-5.643861E-3,8.946481E-2,1.0824471E-1,3.418466E-2],"categories":[],"categories_nodes":[],"categories_segments":[],"categories_sizes":[],"default_left":[0,0,0,0,0,0,0,0,0,0,0,0,0,0,0,0,0,0,0,0,0,0,0,0,0,0,0,0,0,0,0,0,0,0,0,0,0,0,0,0,0,0,0,0,0,0,0,0,0,0,0,0,0,0,0,0,0],"id":16,"left_children":[1,3,5,7,9,11,13,-1,-1,15,17,19,21,23,25,27,-1,-1,29,31,33,35,37,-1,-1,39,-1,41,-1,-1,-1,43,-1,45,-1,47,49,51,-1,53,55,-1,-1,-1,-1,-1,-1,-1,-1,-1,-1,-1,-1,-1,-1,-1,-1],"loss_changes":[8.408656E0,3.2440758E0,4.6095624E0,4.0515137E-1,1.7648222E0,3.1639564E0,8.4279156E-1,0E0,0E0,1.4544063E0,1.8113118E0,3.538103E0,3.5929675E0,1.1765404E0,9.864588E-1,7.611425E-1,0E0,0E0,2.1052973E0,4.213026E0,1.2802193E0,1.6651554E0,8.746472E-1,0E0,0E0,4.9891567E-1,0E0,1.0031676E0,0E0,0E0,0E0,3.422975E0,0E0,1.2889247E0,0E0,3.6238098E-1,2.3695323E0,1.10515E-1,0E0,1.3541982E0,4.65096E-1,0E0,0E0,0E0,0E0,0E0,0E0,0E0,0E0,0E0,0E0,0E0,0E0,0E0,0E0,0E0,0E0],"parents":[2147483647,0,0,1,1,2,2,3,3,4,4,5,5,6,6,9,9,10,10,11,11,12,12,13,13,14,14,15,15,18,18,19,19,20,20,21,21,22,22,25,25,27,27,31,31,33,33,35,35,36,36,37,37,39,39,40,40],"right_children":[2,4,6,8,10,12,14,-1,-1,16,18,20,22,24,26,28,-1,-1,30,32,34,36,38,-1,-1,40,-1,42,-1,-1,-1,44,-1,46,-1,48,50,52,-1,54,56,-1,-1,-1,-1,-1,-1,-1,-1,-1,-1,-1,-1,-1,-1,-1,-1],"split_conditions":[1.07E2,2.6E1,1.55E2,1.22E2,3.82E1,4.2E1,2.78E1,-1.0057279E-1,-1.60842E-2,1.55E2,2.87E-1,4.08E1,5.5E1,2.56E1,5.43E2,5.1E1,3.8619235E-2,-4.507635E-2,8.74E-1,1.96E2,2.8E1,3.72E1,2.81E1,6.102368E-2,-3.263566E-2,3E-1,-1.1427528E-2,6.8E1,1.3036512E-2,1.109245E-1,-3.1152735E-2,4.97E-1,-1.12345E-1,1.32E2,9.8226994E-2,1.65E-1,3.7E1,2.43E1,2.3402823E-2,3.8E1,4.4E1,-1.3463156E-2,-7.951111E-2,-3.333037E-2,3.2316376E-2,5.239879E-2,-4.93549E-2,2.0944018E-2,1.031546E-1,-5.6786347E-2,8.074049E-2,-1.5695265E-2,-7.8291945E-2,-5.643861E-3,8.946481E-2,1.0824471E-1,3.418466E-2],"split_indices":[1,7,1,4,5,7,5,0,0,4,6,5,7,5,4,7,0,0,6,4,7,5,5,0,0,6,0,2,0,0,0,6,0,4,0,6,3,5,0,7,7,0,0,0,0,0,0,0,0,0,0,0,0,0,0,0,0],"split_type":[0,0,0,0,0,0,0,0,0,0,0,0,0,0,0,0,0,0,0,0,0,0,0,0,0,0,0,0,0,0,0,0,0,0,0,0,0,0,0,0,0,0,0,0,0,0,0,0,0,0,0,0,0,0,0,0,0],"sum_hessian":[1.00541725E2,2.7071356E1,7.347037E1,9.182485E0,1.7888872E1,5.5852676E1,1.7617691E1,8.123901E0,1.0585831E0,1.3413806E1,4.475065E0,4.2063072E1,1.3789605E1,3.4745278E0,1.4143164E1,1.2001025E1,1.4127812E0,1.4295195E0,3.0455456E0,3.657123E1,5.49184E0,1.028667E1,3.502936E0,1.4449161E0,2.0296116E0,1.30178585E1,1.1253045E0,1.0655281E1,1.3457439E0,1.9936031E0,1.0519423E0,3.2893105E1,3.6781275E0,3.022985E0,2.468855E0,7.207278E0,3.079392E0,2.4278224E0,1.0751135E0,4.7958775E0,8.221981E0,3.958154E0,6.697127E0,2.1581633E1,1.1311472E1,1.7034585E0,1.3195263E0,1.2253972E0,5.9818807E0,1.8230876E0,1.2563043E0,1.0182292E0,1.4095931E0,3.050118E0,1.7457595E0,5.836396E0,2.385585E0],"tree_param":{"num_deleted":"0","num_feature":"8","num_nodes":"57","size_leaf_vector":"1"}},{"base_weights":[-1.0921489E-2,-2.842162E-1,2.5966963E-1,-7.984499E-1,-9.775985E-2,-2.745011E-1,3.8087037E-1,-9.060421E-2,-2.7437183E-1,-3.6732376E-1,1.7679708E-1,-7.3361295E-1,2.4515362E-1,1.2597334E-1,5.544373E-1,-6.989837E-2,2.1182276E-2,-4.3597746E-1,3.5842504E-2,-3.9497432E-1,3.4652933E-1,-9.618273E-2,-2.6233935E-1,-5.3159375E-2,5.642204E-1,2.8133866E-1,-9.274652E-2,9.265543E-1,2.890712E-1,-6.4038587E-1,-7.6414004E-2,-7.62234E-2,9.264006E-3,5.014518E-1,-2.0876181E-1,2.4412168E-2,-6.4332895E-2,8.705136E-2,-1.6164718E-2,-1.5876308E-1,5.509916E-1,1.2113663E-1,5.1943743E-1,2.5758933E-2,6.321928E-1,3.0728916E-2,-8.120171E-2,-8.347649E-2,3.9225265E-2,6.40726E-2,-2.6736472E-2,-6.948953E-2,2.3712488E-2,-9.495961E-2,1.975745E-2,8.668949E-2,2.0570917E-2,-4.361927E-2,8.466467E-2,4.6869915E-2,-6.413719E-2,-8.200292E-3,8.096032E-2],"categories":[],"categories_nodes":[],"categories_segments":[],"categories_sizes":[],"default_left":[0,0,0,0,0,0,0,0,0,0,0,0,0,0,0,0,0,0,0,0,0,0,0,0,0,0,0,0,0,0,0,0,0,0,0,0,0,0,0,0,0,0,0,0,0,0,0,0,0,0,0,0,0,0,0,0,0,0,0,0,0,0,0],"id":17,"left_children":[1,3,5,7,9,11,13,-1,15,17,19,21,23,25,27,-1,-1,29,-1,31,33,-1,35,-1,37,39,-1,41,43,45,47,-1,-1,49,51,-1,-1,-1,-1,53,55,-1,57,59,61,-1,-1,-1,-1,-1,-1,-1,-1,-1,-1,-1,-1,-1,-1,-1,-1,-1,-1],"loss_changes":[7.419371E0,4.706037E0,3.3697708E0,4.922104E-1,2.8594122E0,2.5437474E0,1.7673473E0,0E0,9.061506E-1,1.121731E0,2.0177276E0,3.403933E-1,1.6375463E0,3.225925E0,2.142611E0,0E0,0E0,1.2853146E0,0E0,9.4876015E-1,1.4361297E0,0E0,7.693141E-1,0E0,1.0991318E0,2.0521104E0,0E0,4.964161E-1,1.4024031E0,2.1099925E0,3.0695128E0,0E0,0E0,1.4985092E0,1.0496246E0,0E0,0E0,0E0,0E0,2.1788032E0,9.6575785E-1,0E0,2.1662319E0,3.234018E0,9.248841E-1,0E0,0E0,0E0,0E0,0E0,0E0,0E0,0E0,0E0,0E0,0E0,0E0,0E0,0E0,0E0,0E0,0E0,0E0],"parents":[2147483647,0,0,1,1,2,2,3,3,4,4,5,5,6,6,8,8,9,9,10,10,11,11,12,12,13,13,14,14,17,17,19,19,20,20,22,22,24,24,25,25,27,27,28,28,29,29,30,30,33,33,34,34,39,39,40,40,42,42,43,43,44,44],"right_children":[2,4,6,8,10,12,14,-1,16,18,20,22,24,26,28,-1,-1,30,-1,32,34,-1,36,-1,38,40,-1,42,44,46,48,-1,-1,50,52,-1,-1,-1,-1,54,56,-1,58,60,62,-1,-1,-1,-1,-1,-1,-1,-1,-1,-1,-1,-1,-1,-1,-1,-1,-1,-1],"split_conditions":[1.24E2,2.79E1,2.5E1,6.74E-1,3.1E1,3.29E1,3.13E-1,-9.060421E-2,3E0,4.53E1,9.5E1,3.95E-1,1.3E2,2.87E-1,4E0,-6.989837E-2,2.1182276E-2,5.02E-1,3.5842504E-2,3.1E1,1.19E2,-9.618273E-2,1.7E1,-5.3159375E-2,1.68E2,3.8E1,-9.274652E-2,5.51E-1,8E0,5.4E1,3.27E1,-7.62234E-2,9.264006E-3,8.8E1,3.32E1,2.4412168E-2,-6.4332895E-2,8.705136E-2,-1.6164718E-2,2.03E-1,7.8E1,1.2113663E-1,7.09E-1,5.93E-1,4.64E-1,3.0728916E-2,-8.120171E-2,-8.347649E-2,3.9225265E-2,6.40726E-2,-2.6736472E-2,-6.948953E-2,2.3712488E-2,-9.495961E-2,1.975745E-2,8.668949E-2,2.0570917E-2,-4.361927E-2,8.466467E-2,4.6869915E-2,-6.413719E-2,-8.200292E-3,8.096032E-2],"split_indices":[1,5,7,6,7,5,6,0,0,5,1,6,1,6,0,0,0,6,0,3,1,0,3,0,4,7,0,6,0,2,5,0,0,2,5,0,0,0,0,6,2,0,6,6,6,0,0,0,0,0,0,0,0,0,0,0,0,0,0,0,0,0,0],"split_type":[0,0,0,0,0,0,0,0,0,0,0,0,0,0,0,0,0,0,0,0,0,0,0,0,0,0,0,0,0,0,0,0,0,0,0,0,0,0,0,0,0,0,0,0,0,0,0,0,0,0,0,0,0,0,0,0,0,0,0,0,0,0,0],"sum_hessian":[9.833004E1,4.8895573E1,4.9434464E1,1.2137889E1,3.6757687E1,8.90822E0,4.0526245E1,9.465755E0,2.672133E0,1.8377003E1,1.8380682E1,4.5110245E0,4.3971953E0,1.7115921E1,2.3410322E1,1.1927754E0,1.4793576E0,1.7153595E1,1.2234074E0,3.9036255E0,1.44770565E1,2.3379579E0,2.1730669E0,1.0863817E0,3.310814E0,1.5554773E1,1.561147E0,8.707866E0,1.4702457E1,1.0438436E1,6.7151604E0,1.9053617E0,1.9982638E0,1.1394911E1,3.0821457E0,1.0871408E0,1.085926E0,2.1881928E0,1.1226212E0,6.0658712E0,9.488902E0,3.9612017E0,4.746664E0,8.926961E0,5.7754965E0,1.479402E0,8.959034E0,2.2665312E0,4.448629E0,9.788323E0,1.6065874E0,1.207355E0,1.8747909E0,1.3670498E0,4.698821E0,4.1663623E0,5.3225403E0,1.1257601E0,3.620904E0,5.5436835E0,3.3832772E0,1.2562056E0,4.519291E0],"tree_param":{"num_deleted":"0","num_feature":"8","num_nodes":"63","size_leaf_vector":"1"}},{"base_weights":[-1.2907615E-2,-1.3481453E-1,5.423688E-1,-7.4676085E-1,-2.3668624E-2,8.342619E-2,6.452634E-1,-8.4340173E-1,-1.247635E-2,-4.7027266E-1,9.09717E-2,5.5167288E-2,-3.194293E-2,7.1625596E-1,-1.3741928E-2,-8.908743E-1,-2.0122675E-2,2.70718E-1,-6.637275E-1,1.3522495E-1,-7.412042E-2,7.805808E-1,-1.4914362E-3,-9.6717544E-2,-2.5044534E-2,-3.6063876E-3,4.2642973E-2,-9.881539E-2,-1.5171452E-1,-2.3839732E-1,2.3704019E-1,4.011873E-1,9.544255E-1,4.8008934E-2,-3.9117526E-2,4.9879823E-2,-3.630227E-2,6.3196145E-2,1.001606E-2,-1.1632494E-2,8.6291514E-2,1.0790292E-1,1.0957683E-2],"categories":[],"categories_nodes":[],"categories_segments":[],"categories_sizes":[],"default_left":[0,0,0,0,0,0,0,0,0,0,0,0,0,0,0,0,0,0,0,0,0,0,0,0,0,0,0,0,0,0,0,0,0,0,0,0,0,0,0,0,0,0,0],"id":18,"left_children":[1,3,5,7,9,11,13,15,-1,17,19,-1,-1,21,-1,23,-1,25,27,29,-1,31,-1,-1,-1,-1,-1,-1,33,35,37,39,41,-1,-1,-1,-1,-1,-1,-1,-1,-1,-1],"loss_changes":[6.6540613E0,5.458809E0,7.8203154E-1,6.367569E-1,3.584445E0,1.0043579E0,8.935766E-1,1.4114141E-1,0E0,2.2283852E0,2.1582003E0,0E0,0E0,6.3629055E-1,0E0,2.2174597E-1,0E0,1.9064823E-1,1.7807374E0,2.1071537E0,0E0,4.234724E-1,0E0,0E0,0E0,0E0,0E0,0E0,1.0485666E0,1.2874846E0,2.253796E0,1.4306043E0,6.8804455E-1,0E0,0E0,0E0,0E0,0E0,0E0,0E0,0E0,0E0,0E0],"parents":[2147483647,0,0,1,1,2,2,3,3,4,4,5,5,6,6,7,7,9,9,10,10,13,13,15,15,17,17,18,18,19,19,21,21,28,28,29,29,30,30,31,31,32,32],"right_children":[2,4,6,8,10,12,14,16,-1,18,20,-1,-1,22,-1,24,-1,26,28,30,-1,32,-1,-1,-1,-1,-1,-1,34,36,38,40,42,-1,-1,-1,-1,-1,-1,-1,-1,-1,-1],"split_conditions":[1.55E2,2.64E1,2.78E1,5.2E1,2.5E1,2.56E1,1.441E0,1.32E2,-1.247635E-2,8E0,1.5E2,5.5167288E-2,-3.194293E-2,4.3E1,-1.3741928E-2,6.74E-1,-2.0122675E-2,3.25E1,3.2E1,1.01E2,-7.412042E-2,7.2E1,-1.4914362E-3,-9.6717544E-2,-2.5044534E-2,-3.6063876E-3,4.2642973E-2,-9.881539E-2,2.2E1,5.2E1,6.8E1,2.7E1,2.49E2,4.8008934E-2,-3.9117526E-2,4.9879823E-2,-3.630227E-2,6.3196145E-2,1.001606E-2,-1.1632494E-2,8.6291514E-2,1.0790292E-1,1.0957683E-2],"split_indices":[1,5,5,7,7,5,6,1,0,3,1,0,0,3,0,6,0,5,3,1,0,2,0,0,0,0,0,0,7,2,2,3,4,0,0,0,0,0,0,0,0,0,0],"split_type":[0,0,0,0,0,0,0,0,0,0,0,0,0,0,0,0,0,0,0,0,0,0,0,0,0,0,0,0,0,0,0,0,0,0,0,0,0,0,0,0,0,0,0],"sum_hessian":[9.621884E1,7.951837E1,1.670047E1,1.1343679E1,6.817469E1,3.3901417E0,1.33103285E1,9.5101185E0,1.8335612E0,1.329178E1,5.488291E1,1.3969886E0,1.9931531E0,1.2281239E1,1.0290895E0,8.494862E0,1.0152571E0,2.669066E0,1.0622714E1,5.2906944E1,1.9759685E0,1.12260475E1,1.0551915E0,7.1346374E0,1.3602239E0,1.1573191E0,1.5117468E0,5.933278E0,4.6894364E0,1.104278E1,4.1864166E1,4.566967E0,6.6590805E0,1.0126743E0,3.676762E0,1.1626983E0,9.880082E0,9.844415E0,3.201975E1,2.5061257E0,2.0608413E0,5.5616293E0,1.097451E0],"tree_param":{"num_deleted":"0","num_feature":"8","num_nodes":"43","size_leaf_vector":"1"}},{"base_weights":[-1.2034609E-2,-4.2092282E-1,1.3536437E-1,-8.82789E-1,-1.738379E-1,3.720382E-2,6.4560574E-1,-9.6487656E-2,-1.3748258E-2,-5.1663476E-1,5.5337336E-2,-8.750238E-2,3.638426E-1,1.5058658E-1,8.8679366E-2,-2.3229437E-2,-7.550436E-1,-4.2397684E-1,4.6703637E-1,4.686861E-3,-7.1479225E-1,5.9873176E-1,-3.4306452E-1,3.985718E-1,-3.289976E-2,-6.4249575E-2,6.5235555E-2,-9.840028E-2,-1.8620271E-3,-6.519607E-1,3.0440373E-2,7.328408E-1,-2.5601065E-2,-1.0038513E-1,6.656989E-1,-1.0067286E-2,-8.9140706E-2,7.513049E-1,1.15914784E-1,-6.918859E-1,4.2887855E-2,-1.0206643E-2,7.360696E-2,-8.616627E-2,1.8935374E-3,4.7145644E-3,8.94419E-2,2.2268895E-2,-2.9506296E-2,-6.835889E-4,9.432199E-2,9.291931E-2,4.1748504E-3,-4.5866918E-2,7.923644E-2,-1.9260587E-2,-8.1402674E-2],"categories":[],"categories_nodes":[],"categories_segments":[],"categories_sizes":[],"default_left":[0,0,0,0,0,0,0,0,0,0,0,0,0,0,0,0,0,0,0,0,0,0,0,0,0,0,0,0,0,0,0,0,0,0,0,0,0,0,0,0,0,0,0,0,0,0,0,0,0,0,0,0,0,0,0,0,0],"id":19,"left_children":[1,3,5,7,9,11,13,-1,-1,15,17,19,21,23,-1,25,27,29,31,33,35,37,39,41,-1,-1,-1,-1,-1,43,-1,45,-1,47,49,-1,-1,51,53,55,-1,-1,-1,-1,-1,-1,-1,-1,-1,-1,-1,-1,-1,-1,-1,-1,-1],"loss_changes":[5.816694E0,2.7640543E0,3.5320768E0,3.9746618E-1,1.4348578E0,2.5005639E0,1.22684E0,0E0,0E0,8.37531E-1,2.4932783E0,2.5864098E0,3.0180893E0,7.1832967E-1,0E0,1.8415114E0,8.026762E-1,1.1779656E0,1.4816006E0,2.84061E0,5.317323E-1,8.763628E-1,1.6055208E0,7.014286E-1,0E0,0E0,0E0,0E0,0E0,6.9312596E-1,0E0,5.3196E-1,0E0,2.2877047E0,1.0532498E0,0E0,0E0,1.192606E0,2.0436788E0,7.070267E-2,0E0,0E0,0E0,0E0,0E0,0E0,0E0,0E0,0E0,0E0,0E0,0E0,0E0,0E0,0E0,0E0,0E0],"parents":[2147483647,0,0,1,1,2,2,3,3,4,4,5,5,6,6,9,9,10,10,11,11,12,12,13,13,15,15,16,16,17,17,18,18,19,19,20,20,21,21,22,22,23,23,29,29,31,31,33,33,34,34,37,37,38,38,39,39],"right_children":[2,4,6,8,10,12,14,-1,-1,16,18,20,22,24,-1,26,28,30,32,34,36,38,40,42,-1,-1,-1,-1,-1,44,-1,46,-1,48,50,-1,-1,52,54,56,-1,-1,-1,-1,-1,-1,-1,-1,-1,-1,-1,-1,-1,-1,-1,-1,-1],"split_conditions":[1.07E2,2.6E1,1.66E2,1.19E2,2.87E-1,4.2E1,1.7E1,-9.6487656E-2,-1.3748258E-2,3.21E1,3.27E1,2.25E2,5.5E1,5.39E-1,8.8679366E-2,2.97E1,8.2E1,1.04E2,8.2E1,4.08E1,7E1,3.72E1,2.89E1,3.52E1,-3.289976E-2,-6.4249575E-2,6.5235555E-2,-9.840028E-2,-1.8620271E-3,7E0,3.0440373E-2,8.7E1,-2.5601065E-2,6.8E1,1.21E2,-1.0067286E-2,-8.9140706E-2,1.53E2,3.7E1,5E0,4.2887855E-2,-1.0206643E-2,7.360696E-2,-8.616627E-2,1.8935374E-3,4.7145644E-3,8.94419E-2,2.2268895E-2,-2.9506296E-2,-6.835889E-4,9.432199E-2,9.291931E-2,4.1748504E-3,-4.5866918E-2,7.923644E-2,-1.9260587E-2,-8.1402674E-2],"split_indices":[1,7,1,4,6,7,3,0,0,5,5,4,7,6,0,5,2,1,2,5,2,5,5,5,0,0,0,0,0,0,0,1,0,2,1,0,0,1,3,0,0,0,0,0,0,0,0,0,0,0,0,0,0,0,0,0,0],"split_type":[0,0,0,0,0,0,0,0,0,0,0,0,0,0,0,0,0,0,0,0,0,0,0,0,0,0,0,0,0,0,0,0,0,0,0,0,0,0,0,0,0,0,0,0,0,0,0,0,0,0,0,0,0,0,0,0,0],"sum_hessian":[9.45657E1,2.4565302E1,7.00004E1,7.664861E0,1.690044E1,5.9606228E1,1.0394167E1,6.6390376E0,1.0258232E0,6.2690167E0,1.0631423E1,4.3666912E1,1.5939315E1,3.9373724E0,6.4567947E0,2.3998268E0,3.86919E0,4.8985457E0,5.7328777E0,3.8937077E1,4.7298336E0,1.2078823E1,3.8604918E0,2.7067025E0,1.23067E0,1.2776573E0,1.1221696E0,2.6950793E0,1.1741107E0,3.8107078E0,1.0878379E0,4.181969E0,1.5509081E0,3.4328484E1,4.608593E0,1.4071051E0,3.3227286E0,8.7558365E0,3.3229866E0,2.7304015E0,1.13009E0,1.3708248E0,1.3358777E0,2.6866086E0,1.1240993E0,1.0438652E0,3.1381042E0,1.2853615E1,2.147487E1,1.6311319E0,2.9774609E0,6.753237E0,2.0026E0,1.970861E0,1.3521256E0,1.0431582E0,1.6872435E0],"tree_param":{"num_deleted":"0","num_feature":"8","num_nodes":"57","size_leaf_vector":"1"}},{"base_weights":[-1.1449897E-2,-1.2066167E-1,4.9526793E-1,-7.088511E-1,-1.962938E-2,5.4997104E-1,-1.7652845E-2,-8.115954E-1,-9.583148E-3,-1.2843786E-1,3.6363026E-1,6.120936E-1,-1.5906816E-2,-8.611785E-1,-1.925787E-2,6.660998E-1,-1.8774033E-1,-3.7514898E-1,5.7904893E-1,6.812048E-1,-1.6255025E-2,-9.417029E-2,-2.3975069E-2,9.954897E-2,-5.1357597E-3,-5.4214185E-1,-8.1150286E-2,2.0897808E-2,-8.414757E-2,1.09571375E-1,8.196063E-1,3.4377914E-2,8.655144E-1,-6.998564E-2,1.4021524E-3,-2.6418382E-2,1.6720172E-2,-4.4417296E-2,5.0816458E-2,1.4067644E-2,9.389157E-2,-5.7039645E-2,4.5992266E-2,9.34914E-2,1.8892808E-2],"categories":[],"categories_nodes":[],"categories_segments":[],"categories_sizes":[],"default_left":[0,0,0,0,0,0,0,0,0,0,0,0,0,0,0,0,0,0,0,0,0,0,0,0,0,0,0,0,0,0,0,0,0,0,0,0,0,0,0,0,0,0,0,0,0],"id":20,"left_children":[1,3,5,7,9,11,-1,13,-1,15,17,19,-1,21,-1,23,25,27,29,31,-1,-1,-1,-1,-1,33,35,-1,-1,37,39,41,43,-1,-1,-1,-1,-1,-1,-1,-1,-1,-1,-1,-1],"loss_changes":[5.2519403E0,4.620848E0,7.1565247E-1,6.405144E-1,2.86524E0,7.936487E-1,0E0,1.2983036E-1,0E0,2.6402795E0,2.6372702E0,8.9988375E-1,0E0,2.061181E-1,0E0,9.792663E-1,1.8619373E0,1.2762703E0,1.2842369E0,1.6065798E0,0E0,0E0,0E0,0E0,0E0,1.0176489E0,1.8608087E0,0E0,0E0,1.3902903E0,5.070472E-1,1.3136816E0,3.229971E-1,0E0,0E0,0E0,0E0,0E0,0E0,0E0,0E0,0E0,0E0,0E0,0E0],"parents":[2147483647,0,0,1,1,2,2,3,3,4,4,5,5,7,7,9,9,10,10,11,11,13,13,15,15,16,16,17,17,18,18,19,19,25,25,26,26,29,29,30,30,31,31,32,32],"right_children":[2,4,6,8,10,12,-1,14,-1,16,18,20,-1,22,-1,24,26,28,30,32,-1,-1,-1,-1,-1,34,36,-1,-1,38,40,42,44,-1,-1,-1,-1,-1,-1,-1,-1,-1,-1,-1,-1],"split_conditions":[1.55E2,2.64E1,6.1E1,5.2E1,4.3E1,1E1,-1.7652845E-2,1.32E2,-9.583148E-3,4.4E1,2.33E-1,1.441E0,-1.5906816E-2,6.74E-1,-1.925787E-2,3E1,1.01E2,1.8E-1,8E0,2.7E1,-1.6255025E-2,-9.417029E-2,-2.3975069E-2,9.954897E-2,-5.1357597E-3,8.4E1,3.1E1,2.0897808E-2,-8.414757E-2,1.15E2,2.89E1,2.6E1,4.02E2,-6.998564E-2,1.4021524E-3,-2.6418382E-2,1.6720172E-2,-4.4417296E-2,5.0816458E-2,1.4067644E-2,9.389157E-2,-5.7039645E-2,4.5992266E-2,9.34914E-2,1.8892808E-2],"split_indices":[1,5,7,7,7,0,0,1,0,2,6,6,0,6,0,7,1,6,3,7,0,0,0,0,0,4,7,0,0,1,5,3,4,0,0,0,0,0,0,0,0,0,0,0,0],"split_type":[0,0,0,0,0,0,0,0,0,0,0,0,0,0,0,0,0,0,0,0,0,0,0,0,0,0,0,0,0,0,0,0,0,0,0,0,0,0,0,0,0,0,0,0,0],"sum_hessian":[9.2824036E1,7.6992E1,1.583204E1,1.04042845E1,6.6587715E1,1.4807625E1,1.0244145E0,8.63337E0,1.770914E0,5.2381374E1,1.4206339E1,1.37404785E1,1.0671463E0,7.63093E0,1.0024407E0,2.927419E0,4.9453957E1,3.0398102E0,1.1166529E1,1.2725751E1,1.0147276E0,6.299286E0,1.331644E0,1.740718E0,1.1867009E0,1.0489882E1,3.8964073E1,1.5944475E0,1.4453626E0,4.2762957E0,6.8902326E0,3.0851312E0,9.64062E0,7.9711046E0,2.5187778E0,2.239522E1,1.6568855E1,1.7419484E0,2.5343473E0,1.3555523E0,5.5346804E0,1.1336387E0,1.9514924E0,8.397455E0,1.2431647E0],"tree_param":{"num_deleted":"0","num_feature":"8","num_nodes":"45","size_leaf_vector":"1"}},{"base_weights":[-1.0955345E-2,-3.835007E-1,1.1861772E-1,-8.473524E-1,-1.5002818E-1,3.3704195E-2,6.135414E-1,-9.346924E-2,-1.4672863E-2,-3.087104E-1,2.69658E-1,8.449495E-2,-1.0525997E-1,7.712443E-1,-2.3071071E-2,-4.131439E-1,3.3755172E-2,-4.0673103E-2,6.039628E-1,1.299926E-2,6.9878834E-1,9.85068E-2,3.413328E-1,1.7303191E-2,-4.8804048E-1,1.0028496E-1,-2.7903138E-2,-1.5686613E-1,3.5090393E-1,9.245934E-2,-1.6330047E-2,-5.3755794E-2,7.326955E-2,-5.873549E-2,1.2499644E-2,-2.4937678E-2,4.120296E-2,5.036358E-2,-4.501254E-2,9.988371E-3,-1.755277E-2],"categories":[],"categories_nodes":[],"categories_segments":[],"categories_sizes":[],"default_left":[0,0,0,0,0,0,0,0,0,0,0,0,0,0,0,0,0,0,0,0,0,0,0,0,0,0,0,0,0,0,0,0,0,0,0,0,0,0,0,0,0],"id":21,"left_children":[1,3,5,7,9,11,13,-1,-1,15,17,19,-1,21,-1,23,-1,-1,25,27,29,-1,31,-1,33,-1,-1,35,37,-1,-1,39,-1,-1,-1,-1,-1,-1,-1,-1,-1],"loss_changes":[4.491366E0,2.472329E0,2.8832016E0,3.414631E-1,1.2274933E0,3.4014275E0,1.5174396E0,0E0,0E0,1.0123886E0,1.4322771E0,2.5505753E0,0E0,4.642067E-1,0E0,5.93027E-1,0E0,0E0,1.6585379E0,3.1100073E0,1.33007E0,0E0,7.232131E-1,0E0,7.1473765E-1,0E0,0E0,2.0031736E0,2.4428208E0,0E0,0E0,7.6137155E-2,0E0,0E0,0E0,0E0,0E0,0E0,0E0,0E0,0E0],"parents":[2147483647,0,0,1,1,2,2,3,3,4,4,5,5,6,6,9,9,10,10,11,11,13,13,15,15,18,18,19,19,20,20,22,22,24,24,27,27,28,28,31,31],"right_children":[2,4,6,8,10,12,14,-1,-1,16,18,20,-1,22,-1,24,-1,-1,26,28,30,-1,32,-1,34,-1,-1,36,38,-1,-1,40,-1,-1,-1,-1,-1,-1,-1,-1,-1],"split_conditions":[1.07E2,2.6E1,4.09E1,1.16E2,3.82E1,4E1,2.55E2,-9.346924E-2,-1.4672863E-2,1.55E2,2.87E-1,9.05E-1,-1.0525997E-1,3E0,-2.3071071E-2,5.5E1,3.3755172E-2,-4.0673103E-2,8.74E-1,4.1E1,1.391E0,9.85068E-2,7E0,1.7303191E-2,5.1E1,1.0028496E-1,-2.7903138E-2,1.6E2,6.2E1,9.245934E-2,-1.6330047E-2,4.54E-1,7.326955E-2,-5.873549E-2,1.2499644E-2,-2.4937678E-2,4.120296E-2,5.036358E-2,-4.501254E-2,9.988371E-3,-1.755277E-2],"split_indices":[1,7,5,4,5,5,4,0,0,4,6,6,0,0,0,2,0,0,6,7,6,0,0,0,7,0,0,1,7,0,0,6,0,0,0,0,0,0,0,0,0],"split_type":[0,0,0,0,0,0,0,0,0,0,0,0,0,0,0,0,0,0,0,0,0,0,0,0,0,0,0,0,0,0,0,0,0,0,0,0,0,0,0,0,0],"sum_hessian":[9.1100815E1,2.3003109E1,6.809771E1,6.82138E0,1.6181728E1,5.9036907E1,9.0608E0,5.768225E0,1.0531551E0,1.1933957E1,4.2477717E0,5.7280926E1,1.7559842E0,7.7075386E0,1.3532608E0,1.0584293E1,1.3496639E0,1.3333654E0,2.9144063E0,5.2223907E1,5.0570164E0,4.284996E0,3.4225428E0,1.0507048E0,9.533588E0,1.914022E0,1.0003844E0,3.510987E1,1.7114038E1,3.9499187E0,1.1070979E0,2.132443E0,1.2900999E0,8.24049E0,1.2930988E0,3.0682158E1,4.427713E0,1.4685268E1,2.4287698E0,1.0223244E0,1.1101184E0],"tree_param":{"num_deleted":"0","num_feature":"8","num_nodes":"41","size_leaf_vector":"1"}},{"base_weights":[-9.470998E-3,-3.4643874E-1,1.2349004E-1,-7.505293E-1,-9.459287E-2,2.1050962E-2,5.4224473E-1,-8.753979E-2,-2.4807605E-1,-4.3850416E-1,2.1406013E-1,-1.3011287E-1,2.6522064E-1,6.148259E-1,-1.5657669E-2,-6.5141134E-2,3.3392545E-2,-8.4129736E-2,-6.735276E-2,4.425113E-1,-7.281247E-2,-2.402099E-1,4.9539828E-1,9.5703655E-1,8.072674E-2,6.790023E-1,-3.8586182E-3,3.481262E-2,-3.0060935E-1,5.818735E-1,-2.5712216E-2,1.948203E-1,-4.2540035E-1,-3.8371157E-2,8.233134E-1,2.9999599E-2,1.1311137E-1,-1.366669E-1,7.909613E-2,2.9717553E-1,8.729626E-1,1.524496E-2,-5.875195E-2,8.81376E-2,-1.2856707E-2,7.024003E-2,-5.1224142E-2,-6.682287E-2,1.1358122E-2,2.379427E-2,9.601607E-2,-8.601667E-2,2.4685077E-3,-1.918682E-2,7.934401E-2,1.00199655E-1,1.087888E-2],"categories":[],"categories_nodes":[],"categories_segments":[],"categories_sizes":[],"default_left":[0,0,0,0,0,0,0,0,0,0,0,0,0,0,0,0,0,0,0,0,0,0,0,0,0,0,0,0,0,0,0,0,0,0,0,0,0,0,0,0,0,0,0,0,0,0,0,0,0,0,0,0,0,0,0,0,0],"id":22,"left_children":[1,3,5,7,9,11,13,-1,15,17,19,21,23,25,-1,-1,-1,-1,27,29,-1,31,33,35,37,39,-1,-1,41,43,-1,45,47,-1,49,-1,-1,51,-1,53,55,-1,-1,-1,-1,-1,-1,-1,-1,-1,-1,-1,-1,-1,-1,-1,-1],"loss_changes":[4.099414E0,2.5628545E0,2.8052685E0,3.9723396E-1,1.9077559E0,2.0201192E0,7.4880934E-1,0E0,1.0026608E0,1.2006743E0,2.4052541E0,2.4533968E0,2.5902448E0,5.234375E-1,0E0,0E0,0E0,0E0,6.3420045E-1,9.6970975E-1,0E0,2.4592836E0,1.872556E0,1.533916E-1,2.824221E0,5.4419565E-1,0E0,0E0,6.1421096E-1,1.670938E0,0E0,3.766902E0,2.8248897E0,0E0,1.1205101E-1,0E0,0E0,1.6930935E0,0E0,1.4073116E0,5.4963255E-1,0E0,0E0,0E0,0E0,0E0,0E0,0E0,0E0,0E0,0E0,0E0,0E0,0E0,0E0,0E0,0E0],"parents":[2147483647,0,0,1,1,2,2,3,3,4,4,5,5,6,6,8,8,9,9,10,10,11,11,12,12,13,13,18,18,19,19,21,21,22,22,23,23,24,24,25,25,28,28,29,29,31,31,32,32,34,34,37,37,39,39,40,40],"right_children":[2,4,6,8,10,12,14,-1,16,18,20,22,24,26,-1,-1,-1,-1,28,30,-1,32,34,36,38,40,-1,-1,42,44,-1,46,48,-1,50,-1,-1,52,-1,54,56,-1,-1,-1,-1,-1,-1,-1,-1,-1,-1,-1,-1,-1,-1,-1,-1],"split_conditions":[2.97E1,2.8E1,1.55E2,3E0,1.23E2,5.02E-1,1.441E0,-8.753979E-2,3.15E-1,2.63E1,6.1E1,4.08E1,5.57E-1,4.3E1,-1.5657669E-2,-6.5141134E-2,3.3392545E-2,-8.4129736E-2,2.75E1,1E1,-7.281247E-2,6.8E1,2.07E-1,2.7E1,8E0,7.2E1,-3.8586182E-3,3.481262E-2,1.1E2,2.5E1,-2.5712216E-2,1.4E1,4.3E1,-3.8371157E-2,8E1,2.9999599E-2,1.1311137E-1,6.1E-1,7.909613E-2,2.7E1,2.28E2,1.524496E-2,-5.875195E-2,8.81376E-2,-1.2856707E-2,7.024003E-2,-5.1224142E-2,-6.682287E-2,1.1358122E-2,2.379427E-2,9.601607E-2,-8.601667E-2,2.4685077E-3,-1.918682E-2,7.934401E-2,1.00199655E-1,1.087888E-2],"split_indices":[5,7,1,0,1,6,6,0,6,5,7,5,6,3,0,0,0,0,5,0,0,2,6,7,0,2,0,0,1,3,0,4,7,0,2,0,0,6,0,3,4,0,0,0,0,0,0,0,0,0,0,0,0,0,0,0,0],"split_type":[0,0,0,0,0,0,0,0,0,0,0,0,0,0,0,0,0,0,0,0,0,0,0,0,0,0,0,0,0,0,0,0,0,0,0,0,0,0,0,0,0,0,0,0,0,0,0,0,0,0,0,0,0,0,0,0,0],"sum_hessian":[8.954257E1,2.4880783E1,6.466179E1,8.79268E0,1.6088104E1,5.279655E1,1.186524E1,6.447991E0,2.3446887E0,7.410443E0,8.677661E0,3.289722E1,1.9899332E1,1.0857727E1,1.0075127E0,1.3144768E0,1.0302118E0,2.946271E0,4.464172E0,7.4110436E0,1.2666177E0,2.8497343E1,4.399876E0,3.3079195E0,1.6591412E1,9.851023E0,1.0067043E0,1.4280517E0,3.0361202E0,6.3203835E0,1.0906603E0,8.493438E0,2.0003906E1,1.1490978E0,3.2507784E0,1.2632459E0,2.0446737E0,1.332146E1,3.269952E0,4.171409E0,5.6796136E0,1.3589138E0,1.6772064E0,4.2767963E0,2.0435867E0,4.9479995E0,3.5454383E0,1.3625421E1,6.3784847E0,1.1349065E0,2.115872E0,1.6394035E0,1.1682056E1,2.409925E0,1.7614841E0,4.5928726E0,1.086741E0],"tree_param":{"num_deleted":"0","num_feature":"8","num_nodes":"57","size_leaf_vector":"1"}},{"base_weights":[-7.8094895E-3,-3.3131045E-1,1.182266E-1,-8.937182E-2,-1.5186629E-1,2.2462824E-2,5.161157E-1,-6.203859E-1,1.0415944E-2,-1.1771188E-1,2.4774438E-1,5.896162E-1,-1.3712764E-2,-8.9647435E-2,1.1859086E-2,9.633793E-2,-1.18285276E-1,-2.2085944E-1,4.6632525E-1,9.047813E-1,7.301246E-2,2.2944015E-1,7.6737905E-1,2.616346E-1,-4.1354045E-1,1.784057E-1,-3.9205715E-1,-3.6657203E-2,7.769592E-1,2.819684E-2,1.0756811E-1,-1.2965173E-1,7.447567E-2,-1.4142354E-1,7.334637E-2,9.583999E-2,1.629096E-2,5.113996E-2,-4.1858565E-2,-5.6930907E-2,2.951678E-2,6.4203404E-2,-4.8235234E-2,-6.203243E-2,1.0380595E-2,2.2500766E-2,9.080369E-2,-8.294808E-2,2.240884E-3,2.0497954E-2,-5.3130515E-2],"categories":[],"categories_nodes":[],"categories_segments":[],"categories_sizes":[],"default_left":[0,0,0,0,0,0,0,0,0,0,0,0,0,0,0,0,0,0,0,0,0,0,0,0,0,0,0,0,0,0,0,0,0,0,0,0,0,0,0,0,0,0,0,0,0,0,0,0,0,0,0],"id":23,"left_children":[1,3,5,-1,7,9,11,13,15,17,19,21,-1,-1,-1,-1,23,25,27,29,31,33,35,37,39,41,43,-1,45,-1,-1,47,-1,49,-1,-1,-1,-1,-1,-1,-1,-1,-1,-1,-1,-1,-1,-1,-1,-1,-1],"loss_changes":[3.6600068E0,2.4035614E0,2.4515615E0,0E0,1.5483799E0,1.7075498E0,6.8077374E-1,1.1741185E0,2.0819554E0,2.1175556E0,2.3113346E0,5.5509615E-1,0E0,0E0,0E0,0E0,1.7938716E0,2.0590389E0,1.6666609E0,1.5037751E-1,2.471582E0,1.0757734E0,6.774869E-1,1.4345932E0,1.1443053E0,3.1955657E0,2.4051328E0,0E0,1.0032153E-1,0E0,0E0,1.5354404E0,0E0,6.267391E-1,0E0,0E0,0E0,0E0,0E0,0E0,0E0,0E0,0E0,0E0,0E0,0E0,0E0,0E0,0E0,0E0,0E0],"parents":[2147483647,0,0,1,1,2,2,4,4,5,5,6,6,7,7,8,8,9,9,10,10,11,11,16,16,17,17,18,18,19,19,20,20,21,21,22,22,23,23,24,24,25,25,26,26,28,28,31,31,33,33],"right_children":[2,4,6,-1,8,10,12,14,16,18,20,22,-1,-1,-1,-1,24,26,28,30,32,34,36,38,40,42,44,-1,46,-1,-1,48,-1,50,-1,-1,-1,-1,-1,-1,-1,-1,-1,-1,-1,-1,-1,-1,-1,-1,-1],"split_conditions":[2.97E1,1.05E2,1.55E2,-8.937182E-2,2.12E-1,5.02E-1,5.43E2,4.7E1,1.08E2,4.08E1,5.57E-1,3E-1,-1.3712764E-2,-8.9647435E-2,1.1859086E-2,9.633793E-2,4.03E-1,6.8E1,2.07E-1,2.7E1,8E0,3.8E1,4.4E1,5.5E1,1.057E0,1.4E1,4.3E1,-3.6657203E-2,8E1,2.819684E-2,1.0756811E-1,6.1E-1,7.447567E-2,1.74E2,7.334637E-2,9.583999E-2,1.629096E-2,5.113996E-2,-4.1858565E-2,-5.6930907E-2,2.951678E-2,6.4203404E-2,-4.8235234E-2,-6.203243E-2,1.0380595E-2,2.2500766E-2,9.080369E-2,-8.294808E-2,2.240884E-3,2.0497954E-2,-5.3130515E-2],"split_indices":[5,1,1,0,6,6,4,7,1,5,6,6,0,0,0,0,6,2,6,7,0,7,7,7,6,4,7,0,2,0,0,6,0,1,0,0,0,0,0,0,0,0,0,0,0,0,0,0,0,0,0],"split_type":[0,0,0,0,0,0,0,0,0,0,0,0,0,0,0,0,0,0,0,0,0,0,0,0,0,0,0,0,0,0,0,0,0,0,0,0,0,0,0,0,0,0,0,0,0,0,0,0,0,0,0],"sum_hessian":[8.7805214E1,2.4161194E1,6.364402E1,4.881448E0,1.9279745E1,5.2149223E1,1.1494798E1,4.233749E0,1.5045997E1,3.244117E1,1.9708055E1,1.0419804E1,1.0749942E0,2.9270477E0,1.306701E0,1.0185784E0,1.4027418E1,2.8100197E1,4.3409724E0,3.2624173E0,1.6445639E1,4.2002115E0,6.2195916E0,6.184009E0,7.8434095E0,8.420322E0,1.9679874E1,1.1302841E0,3.2106884E0,1.2730234E0,1.9893941E0,1.3253939E1,3.1916997E0,2.8342E0,1.3660116E0,4.281162E0,1.9384302E0,4.704708E0,1.4793011E0,6.5913715E0,1.2520376E0,4.964948E0,3.455374E0,1.3304322E1,6.3755517E0,1.1374843E0,2.073204E0,1.5706038E0,1.1683334E1,1.75191E0,1.0822899E0],"tree_param":{"num_deleted":"0","num_feature":"8","num_nodes":"51","size_leaf_vector":"1"}},{"base_weights":[-4.8698266E-3,-4.1498706E-1,8.759863E-2,-6.0683775E-1,1.7185476E-1,1.2475817E-2,5.31778E-1,-7.5621516E-1,-1.8582447E-1,6.859659E-2,-2.0464848E-1,5.9745006E-2,-9.973451E-2,6.7439413E-1,-2.47906E-2,-9.2176504E-2,-2.886898E-1,2.4690695E-1,-6.79803E-2,-7.089027E-2,4.2041324E-2,-3.706855E-1,1.5273467E-1,-1.9185906E-2,8.0797607E-1,-6.4073615E-2,2.0260222E-2,-2.7843544E-2,6.577828E-2,1.12935975E-1,-6.228617E-1,-7.604036E-2,2.9066136E-1,4.3333733E-1,1.0586616E-1,-3.141748E-2,8.2552135E-2,-9.506353E-2,6.1113364E-3,4.085047E-2,-3.3742107E-2,2.8704253E-3,4.9546625E-2,7.174393E-2,-1.2130923E-2],"categories":[],"categories_nodes":[],"categories_segments":[],"categories_sizes":[],"default_left":[0,0,0,0,0,0,0,0,0,0,0,0,0,0,0,0,0,0,0,0,0,0,0,0,0,0,0,0,0,0,0,0,0,0,0,0,0,0,0,0,0,0,0,0,0],"id":24,"left_children":[1,3,5,7,9,11,13,15,17,-1,19,21,-1,23,-1,-1,25,27,-1,-1,-1,29,31,-1,33,-1,-1,-1,-1,35,37,39,41,43,-1,-1,-1,-1,-1,-1,-1,-1,-1,-1,-1],"loss_changes":[3.3429048E0,1.9300115E0,2.3950334E0,6.4193153E-1,1.0645729E0,3.0470867E0,1.3222842E0,4.1946125E-1,1.1477416E0,0E0,1.4095083E0,2.4874506E0,0E0,1.2023001E0,0E0,0E0,7.8225875E-1,8.689264E-1,0E0,0E0,0E0,1.4217963E0,1.6203434E0,0E0,2.9569054E-1,0E0,0E0,0E0,0E0,1.6728806E0,1.7253809E0,2.651066E0,1.6922221E0,8.6126566E-1,0E0,0E0,0E0,0E0,0E0,0E0,0E0,0E0,0E0,0E0,0E0],"parents":[2147483647,0,0,1,1,2,2,3,3,4,4,5,5,6,6,7,7,8,8,10,10,11,11,13,13,16,16,17,17,21,21,22,22,24,24,29,29,30,30,31,31,32,32,33,33],"right_children":[2,4,6,8,10,12,14,16,18,-1,20,22,-1,24,-1,-1,26,28,-1,-1,-1,30,32,-1,34,-1,-1,-1,-1,36,38,40,42,44,-1,-1,-1,-1,-1,-1,-1,-1,-1,-1,-1],"split_conditions":[1.01E2,8.7E1,4.09E1,3.1E1,1E2,4E1,2.55E2,9.5E1,1.4E1,6.859659E-2,1.42E2,2.5E1,-9.973451E-2,2.07E-1,-2.47906E-2,-9.2176504E-2,3.1E1,3.19E-1,-6.79803E-2,-7.089027E-2,4.2041324E-2,1.5E1,1.24E2,-1.9185906E-2,3.1E1,-6.4073615E-2,2.0260222E-2,-2.7843544E-2,6.577828E-2,3.95E-1,3.3E1,6.8E1,3.13E-1,3E0,1.0586616E-1,-3.141748E-2,8.2552135E-2,-9.506353E-2,6.1113364E-3,4.085047E-2,-3.3742107E-2,2.8704253E-3,4.9546625E-2,7.174393E-2,-1.2130923E-2],"split_indices":[1,4,5,3,4,5,4,1,4,0,4,7,0,6,0,0,7,6,0,0,0,3,1,0,7,0,0,0,0,6,3,2,6,0,0,0,0,0,0,0,0,0,0,0,0],"split_type":[0,0,0,0,0,0,0,0,0,0,0,0,0,0,0,0,0,0,0,0,0,0,0,0,0,0,0,0,0,0,0,0,0,0,0,0,0,0,0,0,0,0,0,0,0],"sum_hessian":[8.619144E1,1.5216251E1,7.097518E1,1.1441662E1,3.7745895E0,6.15872E1,9.387984E0,7.857579E0,3.5840826E0,1.2482201E0,2.5263696E0,5.973201E1,1.8551884E0,8.05047E0,1.3375131E0,5.0853004E0,2.7722788E0,2.1770904E0,1.4069922E0,1.3240722E0,1.2022973E0,1.0081315E1,4.9650696E1,1.0172883E0,7.0331826E0,1.4378028E0,1.334476E0,1.0969174E0,1.0801729E0,3.6443548E0,6.43696E0,1.8843771E1,3.0806925E1,3.9133933E0,3.1197891E0,2.6281781E0,1.0161767E0,4.088031E0,2.3489294E0,6.4058304E0,1.2437941E1,1.40176735E1,1.6789251E1,2.393754E0,1.5196393E0],"tree_param":{"num_deleted":"0","num_feature":"8","num_nodes":"45","size_leaf_vector":"1"}},{"base_weights":[-5.72984E-3,-7.171623E-2,5.1667726E-1,-5.6205446E-1,5.494958E-3,4.4903774E-2,7.7218734E-2,-7.2457665E-1,-5.203211E-2,-3.7215054E-1,8.986239E-2,2.7245957E-1,-3.2976057E-2,-1.1900292E-2,-7.973525E-1,-3.9155923E-2,3.5664786E-2,2.7603385E-1,-5.662466E-1,5.6168925E-2,8.37637E-2,-1.708777E-2,6.257979E-2,-8.929606E-2,-2.249324E-2,-3.6158205E-3,4.319785E-2,-9.223514E-2,-9.4146766E-2,3.210025E-1,-3.8084373E-2,2.668239E-2,-5.473364E-2,9.165155E-2,-1.3615328E-3,-1.9739995E-2,2.527451E-2],"categories":[],"categories_nodes":[],"categories_segments":[],"categories_sizes":[],"default_left":[0,0,0,0,0,0,0,0,0,0,0,0,0,0,0,0,0,0,0,0,0,0,0,0,0,0,0,0,0,0,0,0,0,0,0,0,0],"id":25,"left_children":[1,3,5,7,9,11,-1,13,15,17,19,21,-1,-1,23,-1,-1,25,27,29,-1,-1,-1,-1,-1,-1,-1,-1,31,33,35,-1,-1,-1,-1,-1,-1],"loss_changes":[2.995874E0,2.9215097E0,1.1403522E0,8.323629E-1,2.1868863E0,4.7233906E-1,0E0,2.5251293E-1,6.411062E-1,1.7335556E0,1.3651873E0,6.299362E-1,0E0,0E0,1.7466545E-1,0E0,0E0,1.8899873E-1,1.5902164E0,1.3777943E0,0E0,0E0,0E0,0E0,0E0,0E0,0E0,0E0,1.0298871E0,2.8950315E0,1.9607627E0,0E0,0E0,0E0,0E0,0E0,0E0],"parents":[2147483647,0,0,1,1,2,2,3,3,4,4,5,5,7,7,8,8,9,9,10,10,11,11,14,14,17,17,18,18,19,19,28,28,29,29,30,30],"right_children":[2,4,6,8,10,12,-1,14,16,18,20,22,-1,-1,24,-1,-1,26,28,30,-1,-1,-1,-1,-1,-1,-1,-1,32,34,36,-1,-1,-1,-1,-1,-1],"split_conditions":[1.66E2,2.64E1,1.7E1,1.32E2,2.5E1,5.39E-1,7.7218734E-2,2.08E1,2.58E-1,8E0,4.83E1,3.52E1,-3.2976057E-2,-1.1900292E-2,6.74E-1,-3.9155923E-2,3.5664786E-2,3.25E1,3.2E1,6.8E1,8.37637E-2,-1.708777E-2,6.257979E-2,-8.929606E-2,-2.249324E-2,-3.6158205E-3,4.319785E-2,-9.223514E-2,7E1,2.78E-1,4.3E1,2.668239E-2,-5.473364E-2,9.165155E-2,-1.3615328E-3,-1.9739995E-2,2.527451E-2],"split_indices":[1,5,3,1,7,6,0,5,6,3,5,5,0,0,6,0,0,5,3,2,0,0,0,0,0,0,0,0,2,6,7,0,0,0,0,0,0],"split_type":[0,0,0,0,0,0,0,0,0,0,0,0,0,0,0,0,0,0,0,0,0,0,0,0,0,0,0,0,0,0,0,0,0,0,0,0,0],"sum_hessian":[8.483316E1,7.608537E1,8.747791E0,9.496615E0,6.658876E1,3.4863462E0,5.261445E0,6.8827143E0,2.6139014E0,1.1536776E1,5.5051983E1,2.3387036E0,1.1476426E0,1.0211169E0,5.8615975E0,1.4506276E0,1.1632737E0,2.5612671E0,8.975509E0,5.370714E1,1.344839E0,1.2662797E0,1.0724239E0,4.542856E0,1.3187414E0,1.1090828E0,1.4521842E0,4.572644E0,4.4028645E0,1.3465615E1,4.0241528E1,2.6796913E0,1.7231729E0,4.2186947E0,9.246921E0,2.620678E1,1.4034748E1],"tree_param":{"num_deleted":"0","num_feature":"8","num_nodes":"37","size_leaf_vector":"1"}},{"base_weights":[-4.7484E-3,-3.899522E-1,7.9518914E-2,-5.7778287E-1,1.6030306E-1,1.375621E-2,5.0542086E-1,-3.2486805E-1,-8.7666474E-2,6.3745424E-2,-1.9856223E-1,5.6413468E-2,-7.1795696E-1,-2.075621E-2,6.169483E-1,-5.7818794E-1,2.4392073E-1,-6.861306E-2,3.9395023E-2,-3.2542902E-1,1.3521944E-1,7.3075197E-3,-1.0919813E-1,1.8169332E-1,9.529117E-2,-8.470913E-2,1.1744096E-2,-2.6207699E-2,6.312753E-2,6.442731E-2,-6.601422E-1,-5.0833154E-2,1.7177188E-1,7.775356E-2,-3.88729E-1,-2.9058337E-2,6.9000565E-2,-8.043709E-2,-1.4922782E-2,2.2528792E-2,-2.9881297E-2,3.6865298E-3,-6.1134066E-2],"categories":[],"categories_nodes":[],"categories_segments":[],"categories_sizes":[],"default_left":[0,0,0,0,0,0,0,0,0,0,0,0,0,0,0,0,0,0,0,0,0,0,0,0,0,0,0,0,0,0,0,0,0,0,0,0,0,0,0,0,0,0,0],"id":26,"left_children":[1,3,5,7,9,11,13,15,-1,-1,17,19,21,-1,23,25,27,-1,-1,29,31,-1,-1,33,-1,-1,-1,-1,-1,35,37,-1,39,-1,41,-1,-1,-1,-1,-1,-1,-1,-1],"loss_changes":[2.7794404E0,1.6809092E0,1.9621476E0,5.97641E-1,9.302645E-1,1.9734613E0,8.735695E-1,1.2810198E0,0E0,0E0,1.2644604E0,1.8327612E0,1.1106662E0,0E0,1.0492072E0,1.1789259E0,7.811239E-1,0E0,0E0,1.4078475E0,1.2630384E0,0E0,0E0,1.9598635E0,0E0,0E0,0E0,0E0,0E0,1.4762688E0,3.0135703E-1,0E0,1.2772051E0,0E0,3.2176667E-1,0E0,0E0,0E0,0E0,0E0,0E0,0E0,0E0],"parents":[2147483647,0,0,1,1,2,2,3,3,4,4,5,5,6,6,7,7,10,10,11,11,12,12,14,14,15,15,16,16,19,19,20,20,23,23,29,29,30,30,32,32,34,34],"right_children":[2,4,6,8,10,12,14,16,-1,-1,18,20,22,-1,24,26,28,-1,-1,30,32,-1,-1,34,-1,-1,-1,-1,-1,36,38,-1,40,-1,42,-1,-1,-1,-1,-1,-1,-1,-1],"split_conditions":[1.01E2,8.7E1,4.2E1,1.4E1,1E2,4E1,2.07E-1,3.1E1,-8.7666474E-2,6.3745424E-2,1.42E2,2.5E1,7.4E1,-2.075621E-2,2.8E1,9.5E1,3.19E-1,-6.861306E-2,3.9395023E-2,4.9E1,2.32E1,7.3075197E-3,-1.0919813E-1,4.42E1,9.529117E-2,-8.470913E-2,1.1744096E-2,-2.6207699E-2,6.312753E-2,4.02E-1,3.3E1,-5.0833154E-2,1E1,7.775356E-2,1.22E2,-2.9058337E-2,6.9000565E-2,-8.043709E-2,-1.4922782E-2,2.2528792E-2,-2.9881297E-2,3.6865298E-3,-6.1134066E-2],"split_indices":[1,4,5,4,4,5,6,3,0,0,4,7,2,0,7,1,6,0,0,4,5,0,0,5,0,0,0,0,0,6,3,0,0,0,4,0,0,0,0,0,0,0,0],"split_type":[0,0,0,0,0,0,0,0,0,0,0,0,0,0,0,0,0,0,0,0,0,0,0,0,0,0,0,0,0,0,0,0,0,0,0,0,0,0,0,0,0,0,0],"sum_hessian":[8.3671104E1,1.4367347E1,6.930376E1,1.0673799E1,3.6935482E0,6.0928246E1,8.375514E0,6.9118834E0,3.761915E0,1.252245E0,2.4413033E0,5.8443993E1,2.4842532E0,1.0164394E0,7.3590746E0,4.770662E0,2.1412215E0,1.2525771E0,1.1887261E0,9.462992E0,4.8981E1,1.055846E0,1.4284072E0,3.8770292E0,3.4820454E0,3.28361E0,1.4870517E0,1.0686597E0,1.0725617E0,4.7444363E0,4.718555E0,1.9388174E0,4.7042183E1,1.7186759E0,2.1583533E0,3.3683953E0,1.376041E0,3.231846E0,1.4867091E0,4.270673E1,4.3354506E0,1.0277921E0,1.1305612E0],"tree_param":{"num_deleted":"0","num_feature":"8","num_nodes":"43","size_leaf_vector":"1"}},{"base_weights":[-7.156149E-3,-6.769479E-2,4.7992894E-1,-5.227406E-1,1.0857241E-3,4.319994E-2,7.252822E-1,-8.499467E-2,-2.078909E-1,-3.4268036E-1,7.5023964E-2,-2.9051373E-2,2.6396644E-1,2.1640783E-2,7.941714E-2,-5.421461E-1,2.0250517E-1,2.6207906E-1,-5.3389895E-1,-2.8750533E-1,1.404339E-1,6.170252E-2,-2.0835837E-2,-7.921426E-3,-6.961068E-2,-2.1391029E-2,4.6055406E-2,-2.8702745E-3,4.043196E-2,-8.9483924E-2,-8.8088624E-2,1.05587475E-1,-6.159736E-1,6.9951564E-1,6.366004E-2,2.4661217E-2,-5.1965505E-2,7.5212315E-2,-8.342433E-2,-1.5525745E-2,-7.707953E-2,-7.780324E-3,1.0394695E-1,-3.331652E-3,3.577405E-2],"categories":[],"categories_nodes":[],"categories_segments":[],"categories_sizes":[],"default_left":[0,0,0,0,0,0,0,0,0,0,0,0,0,0,0,0,0,0,0,0,0,0,0,0,0,0,0,0,0,0,0,0,0,0,0,0,0,0,0,0,0,0,0,0,0],"id":27,"left_children":[1,3,5,7,9,11,13,-1,15,17,19,-1,21,-1,-1,23,25,27,29,31,33,-1,-1,-1,-1,-1,-1,-1,-1,-1,35,37,39,41,43,-1,-1,-1,-1,-1,-1,-1,-1,-1,-1],"loss_changes":[2.4986947E0,2.356275E0,9.726224E-1,8.4164834E-1,1.7129585E0,4.0332234E-1,3.6218405E-2,0E0,9.824158E-1,1.5195076E0,1.355301E0,0E0,6.6090614E-1,0E0,0E0,2.1411729E-1,4.835837E-1,1.5788507E-1,1.4326427E0,1.2017816E0,2.0006473E0,0E0,0E0,0E0,0E0,0E0,0E0,0E0,0E0,0E0,8.9540577E-1,3.5813801E0,2.3287201E-1,1.5746734E0,1.2380847E0,0E0,0E0,0E0,0E0,0E0,0E0,0E0,0E0,0E0,0E0],"parents":[2147483647,0,0,1,1,2,2,3,3,4,4,5,5,6,6,8,8,9,9,10,10,12,12,15,15,16,16,17,17,18,18,19,19,20,20,30,30,31,31,32,32,33,33,34,34],"right_children":[2,4,6,8,10,12,14,-1,16,18,20,-1,22,-1,-1,24,26,28,30,32,34,-1,-1,-1,-1,-1,-1,-1,-1,-1,36,38,40,42,44,-1,-1,-1,-1,-1,-1,-1,-1,-1,-1],"split_conditions":[1.66E2,2.64E1,1.7E1,3E0,2.5E1,7.2E1,6.5E1,-8.499467E-2,1.25E2,8E0,2.03E-1,-2.9051373E-2,4.4E1,2.1640783E-2,7.941714E-2,5E0,2.32E1,3.25E1,3.2E1,8E0,2.43E-1,6.170252E-2,-2.0835837E-2,-7.921426E-3,-6.961068E-2,-2.1391029E-2,4.6055406E-2,-2.8702745E-3,4.043196E-2,-8.9483924E-2,7E1,1.81E-1,3.19E1,1.21E2,4.3E1,2.4661217E-2,-5.1965505E-2,7.5212315E-2,-8.342433E-2,-1.5525745E-2,-7.707953E-2,-7.780324E-3,1.0394695E-1,-3.331652E-3,3.577405E-2],"split_indices":[1,5,3,0,7,2,2,0,1,3,6,0,7,0,0,0,5,5,3,3,6,0,0,0,0,0,0,0,0,0,2,6,5,1,7,0,0,0,0,0,0,0,0,0,0],"split_type":[0,0,0,0,0,0,0,0,0,0,0,0,0,0,0,0,0,0,0,0,0,0,0,0,0,0,0,0,0,0,0,0,0,0,0,0,0,0,0,0,0,0,0,0,0],"sum_hessian":[8.263572E1,7.426635E1,8.369367E0,8.88485E0,6.53815E1,3.4336104E0,4.9357567E0,3.523518E0,5.361331E0,1.0929863E1,5.4451637E1,1.2413048E0,2.1923056E0,1.0823063E0,3.8534503E0,2.7778363E0,2.583495E0,2.5366685E0,8.393194E0,7.8038707E0,4.6647766E1,1.0792314E0,